5.374600003963218020e-01 5.316916421698438810e-01 -1.288067410183414196e+00 -6.597410597702934032e-01 -2.143955819199145907e+00 -1.313712330945408180e+00 -1.293822987134197744e+00 6.319328853042790461e-01 9.976294439921699064e-01 -4.280919228273916133e-01 8.085340054444408731e-01 8.846667437535065126e-01 -1.352966137268984959e+00 1.013586473753523287e-01 8.928131740149467532e-01 1.682117470631952383e+00 -1.201641326314006664e+00 5.453043096907023157e-01 4.134565952811369849e-01 -6.768881833224118516e-01 1.555395533177222345e-01 1.540219636636225520e+00 -1.237543346569823344e+00 4.414311642055267493e-01 -7.790078740353117981e-01 -1.464525023601435993e+00 8.212137323726413918e-01 7.729181570211781649e-01 -1.855776547990275471e+00 2.093292253868109243e-01
-1.605602104414161513e+00 -8.056273547599124285e-01 1.092233850581440180e+00 6.759740889993001156e-01 6.724719055817532931e-01 -1.264801467791216716e+00 -2.037627008758916558e-01 -8.755760187040330100e-01 -9.029106327189363457e-01 4.653396862086498498e-01 2.930992508179921519e-01 -5.421573043591039198e-01 -2.250037848746451463e-01 2.138783041971697330e+00 6.795607550462987589e-01 -5.597123828841175097e-01 1.009998198340285480e+00 -1.400686145871374189e+00 -4.334388858027884983e-01 3.871512643271194376e-01 -1.072705945865420896e+00 -9.618776793240426670e-01 1.132328613391692329e+00 9.471663725530974354e-01 1.319561059332620134e+00 8.372137571058286820e-01 -1.325232918324593667e+00 9.845809336433783976e-01 1.109479378680549716e-01 9.076696660247884907e-01
1.819707665973512078e+00 -1.191213884916000776e+00 6.291941909123701659e-01 6.826115964705299355e-01 -1.230754612333848641e+00 -1.396683750458626916e+00 -1.380800370107648334e+00 6.882362372564050368e-01 4.762085476908246018e-01 -1.898614238575223323e-01 -7.762027653555200191e-01 1.857204794515174617e+00 1.521438021351255943e+00 -1.359684632903795265e+00 4.835479688705090484e-01 1.470571331643901469e-01 1.995219476341643983e+00 -1.515599634442847066e+00 -4.514871435807024658e-01 1.257455533710265527e+00 1.979057999986418848e+00 -3.805505595583435485e-01 -1.640913078589212593e-01 4.455889445918454483e-01 -2.560135719632423146e-01 -1.993225480270152561e+00 -1.045280087738736485e+00 6.963760116236500375e-01 6.331568254761775760e-01 -1.012613422312783840e+00
-2.592290711613816967e+00 1.504364978662412700e+00 1.891060610949708121e+00 -6.478165235886710338e-01 1.650272367202316959e+00 -2.193752891420178985e-01 6.578241915133944406e-01 1.483537217179315137e-01 -1.090906748895049683e+00 -3.326134125048190726e-01 -1.408256550293977671e+00 -8.638243630688582364e-01 6.530299065464643116e-01 -1.629878960624022932e+00 1.309223412133655007e+00 1.188554659019962934e+00 -3.780997635996535128e-02 -7.234696488508084444e-01 -1.016526583627413993e+00 1.046431262220425928e+00 1.112786184030461811e+00 6.664708498649639032e-03 -1.485863989616173830e+00 5.918990499612937217e-01 -7.784740089292666587e-01 -1.558198921285906202e+00 1.227185259223306124e+00 1.592494719650822815e-02 2.922752295012593926e-01 9.378883489482813252e-01
3.014813490591544687e-01 4.823032434639966115e-01 -2.857494610836797677e-01 5.185084601341072297e-01 9.951639178953320952e-01 1.519177549628422330e+00 1.101386526596905391e+00 1.038752264036677975e+00 8.132285104451301982e-02 -7.769022330222487283e-02 -1.731406745354973076e+00 -1.478571842840189277e+00 -1.147184650071261247e-01 -2.052323790688874716e-01 -1.797208936322720163e+00 -4.948842964981216563e-01 4.384940837954376391e-01 4.973987900477601365e-02 2.588271772285442029e+00 -1.256197774108009257e+00 -1.198295178181634779e-01 1.053022431321721797e+00 3.248696485425178193e-01 5.688553785144090380e-01 5.705494329592117886e-01 1.188944775697609701e+00 -1.755233362523611618e+00 -1.936051807364398192e+00 -1.095524139503010419e+00 -1.648940602734306982e+00
7.633246595843067306e-01 8.133433347138396829e-01 -2.552327139086948193e+00 -1.142253264675620328e-01 8.061042720927764915e-02 1.228177111806504351e+00 1.828543079178308162e+00 2.038920982221998912e-01 -1.966323786554743158e+00 1.021055599638442113e-01 1.814930928170043645e+00 -1.778012175428256292e-01 -1.898270093241642753e+00 2.151295547163627919e+00 1.369422619863335688e+00 -9.247727401186303098e-01 7.090576369558848624e-01 6.626923722052684429e-01 7.810868215135284842e-01 -1.964872278213629364e-01 4.374632112628438763e-01 -2.711245706269737599e-01 -1.636396162211098959e-01 1.084359403148343004e+00 -7.620040052557580657e-01 -8.994195213442526260e-01 1.194483749629262626e+00 -7.070278768409368197e-01 1.546778701627259389e+00 -3.964805572820140345e-01
6.715466004832330027e-01 -1.616014859654556268e+00 -1.033817546308613666e+00 -2.725943180413979428e-01 7.747817966844204873e-01 6.167964716093855548e-01 6.373302496429926745e-01 7.560091189060523797e-01 1.242250680520041284e+00 -3.056646056484378926e-01 1.045687511661068214e+00 1.161270723036213148e+00 -8.081951158813728275e-01 1.138536283566727453e-01 -5.124902411423595261e-01 2.184316227872836469e-01 -1.351707772003452268e+00 -1.324567623988234466e+00 9.168997064086260584e-01 1.546826589506207883e+00 -4.647344504472120663e-01 -2.263474023643484045e+00 -7.434363202282270322e-01 -7.328048472932071622e-01 1.341142941106002962e+00 9.410444644407204295e-01 -9.438679417944884076e-01 1.397540392529697195e+00 -9.735512223975996138e-01 -1.419229442540508312e+00
-3.783215526898554559e-01 -1.551520558015652140e-01 7.190834726521348752e-02 2.476339655277956187e+00 -4.418712793490656709e-01 7.560584312383697991e-01 4.406550213700568541e-01 -1.818338520743664866e+00 1.195285295401894876e+00 7.074347581787558958e-01 -8.044010381565590562e-01 1.634035920390486618e+00 -1.528728681312189419e+00 -3.186201264253744059e-01 -2.078849558889095839e+00 9.002354554093455752e-01 1.020946326784799019e-01 7.334438692860207887e-01 -6.289073368449522583e-01 8.046448061379299910e-01 -8.403516585648685977e-01 3.329817814799727604e-01 1.779020374628520029e+00 4.790115257410352267e-01 -1.307477074972270281e-01 -7.197053033213932638e-01 1.227553899705659868e+00 -1.487737611867530951e+00 -5.056979361783086047e-01 2.484563603216952021e+00
4.115365353074895149e-01 -1.075483722701031208e+00 7.015354211227334824e-01 -1.713637401671584293e+00 -6.384323299435971100e-01 -3.716166983707682170e-01 -1.049874582262811717e+00 1.445699348348876423e-01 2.786949467503802569e-01 -1.890035643149516442e+00 7.512419809463091180e-01 -1.610489140089831572e+00 2.003373019746090833e+00 -1.287654397157329100e+00 8.709009730214389844e-01 -1.817236011623887482e+00 -8.691125861573564260e-01 1.379122822184644770e+00 6.733351913467104932e-01 -1.570738524190653518e+00 4.757474233943315700e-01 1.461671924154958335e-01 2.556811563110810703e-01 -1.969371227562907833e+00 -1.340049719185729682e+00 2.219433177518887135e+00 -3.286051897621182216e-01 1.163063974857932337e+00 6.501300987804733422e-01 1.166744031432074280e+00
4.315141293942399425e-01 1.557322449411469023e+00 6.413311073047316402e-01 -7.717894322672322893e-01 9.716066425147651398e-02 5.820189953451050391e-01 -7.207964681942158336e-01 -6.679093122249966097e-01 -2.457172916439445409e-01 1.938239938042637611e+00 3.508031650928229717e-02 -7.547933976682774659e-01 1.665984964253274025e+00 2.597982667622411590e-01 -1.042475051221261273e+00 -6.789452063932532866e-02 -6.803466130791259170e-01 1.638338786050179019e+00 -2.615840529714754670e+00 -1.668261972571022600e+00 -1.685773646729179065e+00 6.331647771531874191e-01 4.784624704226243530e-01 -1.590816502048206793e+00 9.984450038312936426e-01 1.230545188453820327e+00 7.598005299105240473e-01 -7.156667831559109239e-01 9.395726707518026188e-01 -1.354430602152077334e+00
