7.082310874637240405e-02 7.048997196977657698e-02 -6.449701616005350246e-02 9.358307317980579798e-02 1.811052248524847030e-04 2.814258329533686487e-02 4.810208821480996266e-02 5.001667390289393778e-02 7.777606888681770636e-02 1.375242950820620980e-02 -8.400545735235365186e-02 -4.719486912316748356e-02 -6.581110856037035439e-02 -8.709918923830298199e-02 -4.914361360900080383e-02 8.628733826016647679e-02 3.602309792019164902e-02 3.462312477238513320e-02 -5.602559357363894738e-02 7.816742676495819220e-02 -8.928864570881958618e-02 4.207045188312488748e-02 -5.323600700324054164e-02 5.396763492405307061e-02 1.460969562070810190e-02 4.327255022456802380e-02 -6.584158402625989170e-02 1.012977637076621640e-02 -6.728112821898042661e-02 -7.288456261253811741e-02 1.556888732816727461e-02 2.266410569395153896e-02 4.656345952010314954e-02 9.507443762456431469e-02 8.915448309769558044e-02 -8.369167724706556843e-02 7.957134542827977441e-02 5.630098965164925806e-02 6.800437455307899171e-02 -8.368032872028179081e-02 -5.749167503734331497e-02 8.002071071975377925e-02 8.609809777855351176e-02 -4.309158583089035821e-02 1.153897448741720948e-02 -4.370692386529892969e-03 6.121930606184783352e-02 6.516183081544670019e-02 -2.348315872387583825e-02 -1.171770393004564065e-02 -9.435821003152283781e-02 -6.876596398861165027e-02 9.580604109553475523e-02 -2.878970242664125045e-02 -9.901806511935305755e-02 -4.308957319630810079e-03 2.827672201110070782e-02 5.293337375240927956e-02 9.712182045702041910e-02 -7.097744951170945060e-02 -6.170647158511149283e-02 2.688437459547984854e-02 -3.140631716975409576e-02 2.993100101873221591e-02 -3.791623198262086825e-02 1.128657048204510793e-01 6.215071812596871526e-02 -4.061481762294526232e-02 4.710435041356588609e-02 4.750875670938913692e-02 2.764982050154771512e-02 -6.916400895705444862e-02 5.719592483741946232e-02 -3.329378777663429684e-02 1.132031184986535474e-02 -8.019952624336351699e-02 8.915914243915498694e-02 -2.272451926325973898e-02 6.157617659840891600e-02 1.066153070347152648e-02 7.079165834747040698e-02 -7.274029173388449343e-02 9.254090809655426964e-02 -9.634891656349249545e-02 3.038697997488351565e-02 -7.216209240840265604e-02 -3.372867930567763350e-02 3.386566680567786730e-02 3.128107517518530917e-02 3.170117296826480829e-02 -3.447841175601378677e-02 5.928363902362351369e-03 9.986074715182780351e-03 1.324007115967718029e-01 9.404376450988653768e-02 7.009752151371481665e-02 2.914634595121920468e-02 1.462657928583799560e-01 2.277279457372417479e-02 -4.586751829547430770e-02 -2.938971479540130553e-03 9.163710937064872830e-02 -5.056838632049685811e-02 7.383587897670175482e-02 3.131501104671168684e-02 6.220309481419709213e-02 1.364142419966589241e-02 -3.019268381700400405e-02 4.215524037921828532e-02 -8.340214726456129934e-02 9.852373030403022147e-02 2.760707646876034427e-02 2.624298125354079803e-02 5.777468885551675232e-02 3.708454807459504038e-02 5.663408718619853538e-02 -1.772287216113798552e-02 2.521684548426646882e-02 -9.338430714191560400e-02 -4.898480054287281810e-02 -3.443710354191253237e-02 1.013600436970962110e-01 1.417494409813782053e-01 3.964281407300223464e-02 6.478953872071463449e-02 -9.693602364770034785e-02 -4.574602257921997484e-02 -2.087939796443944243e-02 1.514660472632779475e-01 1.581269626607405832e-01 7.945290774004828971e-02 7.111779623746293695e-03 4.628066102991761771e-02 1.948410308875279245e-02 6.894434828956463868e-02 -3.633170601844601388e-02 1.285659027537312260e-01 -6.199087772922159956e-02 9.367296302667146857e-02 -7.735162815962055849e-02 2.765698301267402459e-02 -9.762462082293606180e-02 -7.409676242323696982e-02 4.597473617776038496e-02 -6.228383777232408131e-02 -1.475489558774997212e-01 -1.563921079342323883e-01 -1.067199964090760067e-01 1.128995511021079756e-01 1.218693518303201745e-01 2.242491488650037446e-01 2.737248518293049493e-01 3.350879912837803065e-01 2.991290765895877890e-02 4.975330593704081761e-02 6.501692622150446500e-03 6.135540904327971279e-02 1.708290779680715910e-01 -2.410438300088577415e-02 3.079646701738908074e-02 2.400159697905258557e-02 9.434326123023759059e-02 4.172691093323751405e-02 -2.850815567893204283e-02 7.838490394451507956e-03 -1.043488890079222707e-02 -3.849752980191017276e-02 -6.504308189634946946e-02 5.223580535849953188e-02 8.842293138089592219e-02 -1.039558804737864273e-01 -1.149871274830804313e-01 -1.756885396256151755e-01 -1.762810497852789482e-01 -7.632069012584487278e-02 5.759186676302788938e-02 1.143340746994266077e-01 7.109984075893403810e-02 1.069158844926571400e-01 1.901389768029238536e-01 1.590463750216865313e-01 1.384757926831028420e-02 4.017467327287543161e-02 9.853064167788656846e-02 -3.577240192320197548e-02 -8.220040486940893842e-02 -9.617068621075768042e-02 -4.790025490183544288e-02 -9.801411448689356654e-02 -1.017608503783785229e-01 -1.650511296972389727e-02 7.025666477605077564e-02 -4.912485373478445855e-02 -9.038420338904101098e-03 5.041240048343874347e-02 2.159654754315185055e-02 -7.169193587887863484e-02 -4.098524922835339312e-02 -8.611523102358284443e-03 -6.127868718535264781e-04 -2.393625245236042087e-01 -2.068456428389454649e-01 -8.631733253890523649e-02 3.565321924575961393e-02 1.585631536853767676e-01 1.130104585110868892e-01 1.728679499219515359e-01 1.447054485037113924e-01 1.270288271233444566e-01 6.859220915189477574e-02 -1.581488923483823916e-01 -1.137615410678839978e-01 4.930843766840153214e-02 -1.478610080813387295e-01 -3.251133524785940893e-02 -4.981545223866847699e-02 -1.450230348114829315e-01 8.396677645449117725e-03 -2.978044855276580638e-02 -2.577816033626247755e-02 -1.001517686675933508e-02 1.117758403783084137e-01 -9.853510192394789122e-04 1.097438303690883958e-02 -8.932440152081395912e-02 -7.331612993333819217e-02 8.384158612090969465e-02 -9.306743196952217689e-02 -1.197622505002310100e-01 -9.224540317685765711e-02 -4.380266038480393198e-02 -8.967968647802087787e-03 -2.254586038444580595e-02 9.034226555210361775e-02 9.307588357335405682e-02 1.948975271048860869e-01 -8.898672979719808585e-02 -2.025050014771648255e-01 -2.004748134446619201e-01 -5.426032272947668017e-02 -3.777248012201239735e-02 -8.910351460003891610e-02 -3.048967688031704037e-01 -1.427383086632548204e-01 -2.879769072610368630e-01 -1.672506656872409514e-01 -1.104034987883846936e-01 4.270534401220027476e-02 5.976991389893979850e-02 -1.591097047219136931e-02 4.516264871383104951e-02 -7.104441058720201152e-02 -6.070792027872148888e-02 8.135821682734463434e-02 7.641657884845870496e-02 -2.734781853055861037e-02 -1.368436990300068989e-01 -1.009380479329517466e-01 6.296572502336403310e-02 -9.301034449420946329e-03 1.211443346410782662e-01 2.635739986130854473e-01 3.397513909366364770e-01 3.697555712944879391e-01 -6.262319979112519752e-02 -5.011388603966930866e-01 -6.177118561345766867e-01 -1.725967460303548806e-01 -1.236482321231234388e-01 -4.692351087547252247e-02 -2.217441763317001824e-01 -2.022258950402327227e-01 -1.974233210663640103e-01 -2.754407828678424042e-01 -2.438572644832785741e-01 -3.448867248363492871e-02 1.120495369046474177e-01 -4.664527495003781277e-02 -9.442413060441787187e-02 6.632662294861921271e-02 -4.212975667720155609e-02 -5.221719511457865309e-02 -9.250164822329938474e-02 -9.857336758534521182e-02 -1.547207274982871084e-01 1.462646594518897392e-01 3.599653319437119692e-02 7.429463199862076928e-02 1.580868262207189567e-01 3.071127833671679630e-01 4.464989118113484312e-01 1.836802420138251846e-01 -1.136323544157378101e-01 -6.096961651463037590e-01 -4.833278967177684349e-01 -3.486283388811313166e-01 -2.429954040505979129e-01 -5.408902915435939707e-02 -1.391344464997506247e-01 -4.912622180050029569e-02 -1.660538191884275705e-01 -1.344818416545899564e-01 -1.442705887230428252e-01 7.553337049184078063e-03 9.816528960758051647e-02 6.895773868226938441e-02 -2.644158936674757820e-02 5.482174936445963209e-02 -6.602961474710621059e-02 8.088932797876252634e-02 -4.203645527219167927e-02 -1.229234993869605941e-01 -6.885768951259416126e-02 1.405465433478705062e-01 3.816387614982676840e-02 8.092585592804285577e-02 3.040351518599314073e-01 2.135153069702172002e-01 2.268903058377796655e-01 -1.355383796876895655e-02 -4.876134330495726088e-01 -6.213021111846142031e-01 -5.206530264826775278e-01 -2.319158415030652676e-01 -1.139162408844645868e-01 -4.060974639503166922e-02 -1.648379743589888091e-01 2.680074901747820856e-02 -7.480933480975657246e-02 9.502288196712907475e-02 9.187054480450861094e-02 3.500978731146450751e-02 9.218655058831112708e-06 1.422696146461778673e-02 6.841424402448822994e-02 -2.095004521608949052e-02 -2.587620825134973046e-02 7.296377632120713830e-02 -3.846041692284345170e-02 6.254261167601890548e-02 -9.617841386871507636e-02 4.303228409805216759e-02 -1.459317292109734571e-02 1.012837470775132531e-01 1.561447635757158003e-01 2.289581224111256197e-01 9.004194854522869218e-02 -1.629669806612358759e-02 -3.264666411812710001e-01 -3.493485729041937438e-01 -3.313093191846647745e-01 -2.626405667202312277e-01 -8.465824966076536395e-02 -1.432865942374615398e-01 -4.755707927254826384e-02 5.166561045346188680e-03 1.752499011180467525e-01 2.394317974661511750e-01 4.947788511080213059e-02 5.885427323523468451e-02 1.129663678728105719e-01 7.428245887125574376e-02 6.706217195566088057e-03 9.378608388330143819e-02 6.622552584473369308e-02 -3.242876114889981648e-02 2.251816707956087044e-02 2.669567048251809613e-02 2.434646516610303874e-02 1.110458067739190646e-01 -3.569936235602555810e-03 1.192735304214950776e-01 1.680173981603184652e-01 1.465351758036936569e-01 1.189634582801146201e-01 2.806962198424938770e-01 -1.133594363276144677e-02 -9.675077189807171352e-02 -2.422277031236064193e-01 -2.225647565295168218e-01 -1.427106088497084868e-01 -4.252322051711690531e-02 -1.631800740021188967e-01 1.155053835400777912e-01 2.477893198513040907e-01 8.349765004275820635e-02 1.308552563972408267e-01 2.792024070649017087e-02 5.464793762675458633e-02 6.619943291893803060e-03 4.590665551369343261e-02 1.030812310897476075e-01 1.649728168118223814e-02 6.125067991400011402e-02 -2.631097533422908571e-02 7.177444824861578532e-02 -2.206742310920679212e-03 -6.016935873063740392e-03 7.882117529398292854e-02 2.309708081955760273e-01 2.707466457716391495e-01 2.173049398635052976e-01 1.904031950064271062e-01 2.211891354842644430e-01 3.959439078856975824e-02 -9.495097926682004308e-02 -1.746570489411586602e-01 -2.202864541944560273e-01 -2.430872306265976709e-02 -4.813034801072194058e-02 1.181334453001621270e-03 1.023945649535425162e-02 7.543984254332629369e-02 -9.768399184552125844e-03 -3.142697256363236047e-02 -5.646568718422782795e-02 1.368171560994554392e-01 1.068303945815193001e-01 1.625698119372258679e-02 -1.598259333558504566e-02 -8.764075605516022383e-02 -6.281217266754790529e-02 -4.245691841561607255e-02 6.056841665986634204e-02 4.854036873392700985e-02 1.069724798399743354e-01 1.993551850078351118e-01 6.934987922646367042e-02 1.160989078123769724e-01 1.329877095087020067e-01 4.943779210856364195e-03 -1.434240052496379703e-01 4.111201143709058287e-02 -1.794311530499236307e-01 -2.943877024280324162e-01 -1.736922814638036106e-01 8.787128929306735337e-02 9.141000981320733521e-02 1.062389358577438443e-02 2.011422591390602671e-02 -1.150330246129177419e-01 -1.662029593757232970e-01 -1.157454845154268497e-01 -4.000269399144808224e-02 7.957625955361934122e-02 1.909237207839287881e-02 7.482651118037489391e-02 -7.318399025644833911e-02 4.673667779123066163e-02 -6.475971361499163748e-02 5.342383756388434379e-02 -4.794617727220780445e-02 -3.984335851501458886e-02 -1.939645477799035664e-02 4.816241407350219106e-02 9.153922588272932204e-02 1.648400995869160612e-01 1.188666328509364878e-01 1.118103453425644545e-01 1.232993964533961179e-01 1.060961850905862147e-01 -9.361151292653299705e-02 -1.898830698755405999e-01 -8.901397268074642821e-02 1.576584002333624168e-01 1.583148585169335543e-01 3.461736160319230787e-02 4.530464197032661733e-02 -1.390908688337892107e-01 -9.421968398863306282e-02 -2.186096801416126667e-01 -1.975635425810410781e-02 1.242312443823303247e-01 6.427458077397965597e-02 9.718338374932722346e-02 6.315913281279875169e-02 -8.516803142772673418e-02 8.216222164162784170e-02 -9.235974232934195116e-02 1.785385140772076384e-02 -6.102340587716046511e-02 6.323597065947053619e-03 1.113519535153306983e-01 5.411175581693904169e-02 1.617729625025037810e-01 1.040912797978958970e-01 3.295390916832971473e-01 2.977004258825561300e-01 2.746025485021798551e-01 1.093900253159881264e-01 -8.739343796766259331e-02 4.243533396015439912e-02 9.271502576936310747e-02 -1.780161594575215347e-02 7.322475892761319549e-02 -1.005366140294488148e-01 6.012061297790127594e-03 -5.704345300881909914e-02 -3.868767561443807457e-02 -5.676680988009013065e-03 1.595960508194085026e-01 8.682717594658431737e-02 4.724866964046522955e-02 -5.943825982073207975e-02 2.964836956600128831e-02 4.569374796967613089e-02 4.929279368934228606e-02 -1.639770991049626647e-01 -1.705468257282726496e-01 -6.192961545558986307e-03 -1.025589008618731229e-01 1.171068630586126758e-01 1.267454548868668200e-02 2.156939899513472259e-01 3.824032555228299435e-01 4.253423285032668089e-01 4.368811681436392536e-01 2.033045650563017059e-01 -5.295546669731714118e-02 -1.411546459712374399e-02 1.019059220161967344e-01 -2.566919890167623092e-02 -9.854831094588502316e-02 -4.516999786553752699e-02 -1.105607934532308878e-01 -7.197889926474648759e-02 -3.065682063916282118e-02 1.606054341529994933e-01 3.176110343034277417e-01 -1.638217869890601017e-02 -5.351338535825959919e-02 -3.307537208006175455e-02 -3.946963134297269693e-02 9.900429857181566873e-02 6.003638131488977375e-02 -1.870637255115160658e-01 -2.061766377974248443e-01 -2.262895054527991889e-01 7.529229339012537270e-02 1.050009476835961075e-01 1.350808757587147746e-01 -4.403285924572337279e-02 8.599692714574921903e-02 2.480696090099317463e-01 2.600803762572239108e-01 1.114004732465156272e-01 -2.869985672329657903e-03 -1.403136178035585199e-02 1.613564579196624660e-02 -1.218084712773109396e-01 -4.092827022568194112e-02 -8.766362268644323219e-02 1.003278015989365335e-01 9.427773507492409610e-02 8.425646656693028258e-02 1.233097004649806316e-01 2.133292477168511614e-01 -2.914132514498226148e-02 5.309101027945511281e-02 2.272446005364727774e-03 7.218802276981589605e-02 -1.086881998465335022e-02 -7.494302653078084575e-02 -4.596990511251285855e-02 -8.638403334174238335e-02 -9.009945151399444130e-02 -6.047023871603553202e-02 -9.174118655502315478e-02 -1.376387012364025386e-01 -7.842676786620111917e-02 -7.999180063132644777e-03 1.035185805272307857e-01 2.411312437398144271e-01 2.749385168504895338e-01 -9.971446479692420983e-02 1.937171372771804428e-02 -5.013856772441168536e-02 9.056498408468153681e-05 -1.182066204643753178e-02 1.259890061764742941e-01 -1.176097712601485538e-02 -2.389169862879113228e-03 2.694141421840941519e-01 2.849836865555713250e-01 1.076494713108016449e-01 2.199338939373475521e-02 2.377566761465088694e-03 -3.479705527131509921e-03 -9.111999421782808473e-02 5.177813440984498777e-02 4.247282560212729818e-02 -2.557971981162858802e-02 4.370688511974668566e-02 -5.946933323715734160e-02 -9.532048137330605131e-02 -4.183869392427053135e-02 -4.112793462811710488e-02 2.446983745533590909e-02 7.870595040475368565e-02 6.589721800543367480e-02 2.130234924482241887e-01 7.991854361543530849e-02 2.687480197786913660e-02 -5.678920149697563868e-02 4.826009532652946604e-02 -1.217297706478235458e-01 6.007044632317816435e-02 7.685321172917472521e-02 7.611436261438664364e-02 1.865989913008563317e-01 3.303174092914120119e-01 2.786023484242395321e-01 1.820784744741919120e-02 -3.718330013735606648e-02 5.994968766865441806e-02 7.761625647671992201e-02 -5.229239401386888419e-02 3.172946241786345212e-02 8.147073340836950839e-02 -2.479861155295553371e-02 -2.344592136797063117e-02 -1.073269848597695761e-03 -1.270770333116124362e-01 -1.819330014730488956e-02 8.725793222787106562e-02 7.512438706010025891e-02 2.968143483659292994e-02 9.952556154870370597e-02 7.360749938531380154e-02 -2.189408362455678297e-02 -3.941137907501897353e-02 -1.272957290246169992e-01 -1.324738880009513620e-01 -6.384690858377493894e-02 -2.580094393278357587e-02 5.187827048667898594e-02 1.664381357138011719e-01 2.934196599986408360e-01 1.767267994321922719e-01 1.354917777063757711e-01 8.495939708205407781e-02 6.384750869152366892e-02 7.266624569879286122e-02 -7.523507484608629725e-02 -5.392372301415113839e-02 -9.166045912647922955e-02 -2.379479545564478285e-02 5.353050225911472337e-02 -1.052805594468038813e-01 -1.034870160306925607e-01 -1.302318930175424827e-01 -1.462668545603599546e-01 3.690438391522096739e-02 -3.899632587464033073e-02 -7.382805484122760553e-02 -9.784802160382458092e-02 6.751197959141606864e-02 -2.356242375912734333e-02 9.682714921293848753e-02 -1.125246259918575020e-01 -1.346197601451385763e-02 -1.045619259281918706e-01 -1.298857939660318928e-01 3.232356691256565301e-02 2.756890757234872202e-01 2.348272787100236791e-01 1.666928401850096553e-01 4.712335691867222676e-02 6.338152010657549518e-02 -7.290741575203807390e-02 -8.152309238098942590e-02 1.020474336596761955e-02 3.483823644491593208e-02 -8.761151484141847801e-02 -8.674454267255111983e-02 -6.510572313563793567e-02 -6.010795225521719382e-02 -7.607739090308372754e-02 -2.506248081646421100e-01 -1.822152363941023923e-01 -2.119686119961023685e-01 -1.933294809335335540e-01 -1.099386548374359229e-01 -1.393000876020205892e-01 -2.894469914829890869e-03 5.016157655262686726e-02 9.703065125147508976e-03 -1.855984919513498088e-02 -2.710745248835514168e-02 -1.371036145439076537e-02 9.009075914262427986e-02 2.234370543185817959e-01 1.761260151825023990e-01 1.429869746806628761e-01 7.919862766259457010e-02 4.061658881358792827e-02 4.632041428430752616e-02 -3.830697182351972679e-02 1.108084290793896233e-02 3.810527811558800382e-02 2.086873963655670738e-02 9.705594727178265546e-02 4.672894518329422098e-02 9.271607676701842937e-02 -5.363038700574225548e-02 -5.347521378721377394e-02 -1.097396932059272190e-01 -8.745858111900939313e-02 -1.648163584714520125e-01 -1.675716738940392636e-01 -1.146298365300576216e-01 -2.577588065289353469e-01 -2.336003597284951883e-01 -1.681203803100344285e-01 -9.244490162271730427e-02 -6.059053004897396733e-02 -4.764316333959228017e-02 -3.619701255369144749e-02 2.646682883681614196e-02 7.309426194271849420e-02 4.762269288856576382e-02 -4.278478169336914771e-02 7.292403932295661584e-02 -5.557683805837676516e-02 9.841547404125544629e-02 -9.635306589868711247e-02 6.131764009357634077e-02 -9.361512884988362759e-03 9.264500269060288451e-02 8.613443079144048053e-02 -1.830181494500540684e-02 6.032519041173842189e-02 -6.526634353550099521e-02 -8.339034500936057248e-02 -9.742917512862908636e-02 -1.392575022843044880e-02 -7.469906394270420247e-02 -5.894987119393015063e-02 4.357423061914908469e-02 -2.894552043772670447e-02 -7.026094294901652493e-02 5.579902077974586289e-02 6.569739673250661605e-02 4.904476285148277187e-02 -1.372041183207191040e-01 -1.236546702114120627e-01 -4.252215324927011153e-02 2.654358744100615217e-02 -4.301889954350060497e-02 -9.331069060988583797e-02 -8.815115937456627360e-02 -3.797753241421403941e-02 3.926107847624190489e-02 3.452460251239612959e-03 3.529776781463561663e-02 -7.046653684866094336e-02 -3.545180793780748629e-02 4.647166302957689288e-02 1.505943876545903781e-02 7.034400514457955778e-02 -7.615147899237185991e-02 4.854383783252009393e-02 4.972851999429810099e-02 -8.081846238962821227e-02 2.673049058622895685e-02 4.870523014833563064e-02 -5.345030508015776588e-02 -3.650579073903998523e-02 -8.580490649859173757e-02 -3.766809551570111242e-02 -3.535528176026774688e-02 -8.260541473023881587e-02 -4.437209168195876963e-02 -6.746023359950470422e-02 4.677670193790289116e-02 -8.950846510238645581e-02 -5.211480647502262503e-02 -2.132357029817550514e-02 8.711276415174595833e-02 -2.747182475963436555e-03 7.345074059673842304e-03 -9.489803153744136299e-02 5.166614400422753217e-02 1.828268970024540807e-02
-8.370022160208689943e-02 -5.958698800388165240e-02 8.201986843904468527e-02 6.310462780137032768e-02 -3.698806668993680213e-02 -3.142483734968225251e-02 7.595944592170628118e-02 3.001380816172180555e-02 -9.985410292203095173e-03 1.329934264515257591e-02 6.474900807687894444e-02 2.697905597367450392e-02 8.257951042665066799e-02 -3.414985312972206727e-02 4.718680491139318894e-02 -7.778798925876596881e-02 7.398208687918772508e-02 4.889677732283095879e-02 8.851967634257335016e-02 7.686997654596847140e-02 9.830236814325626904e-02 2.766634773278514592e-02 -9.289140864443888590e-02 7.155400237460335378e-03 7.183100822049939826e-03 5.242961783595581626e-02 -6.050951102916507507e-04 -5.050868917698653204e-03 -4.472735118685527284e-02 1.343628548997985450e-02 6.911967184405407028e-02 -4.858073904896649531e-02 -1.117298633251045774e-02 4.905917888721384595e-02 -2.118605828804769053e-02 -1.283216317223552852e-02 2.320800893535821668e-02 1.827468952875354853e-03 -6.910371671125743742e-02 8.481444707880551881e-02 -4.087610925784049276e-02 3.619179549142328978e-02 -2.400241349830033177e-02 1.160160671510000914e-02 5.728907242746874434e-02 8.735753734071691201e-02 9.211252846636273917e-02 -8.213689564228826567e-02 6.461657840404913533e-02 -2.759429337131233395e-02 -1.742504960546494008e-02 6.329683972550935456e-02 3.804313737382439276e-02 -9.449020146305336931e-02 -2.552569436906186595e-02 8.618818643244008371e-02 2.116076057959163925e-02 -8.243183121158764726e-03 3.047086550190009416e-02 8.295380847462076324e-02 -5.199487380942093007e-03 -6.875389682546981240e-02 7.452286276447650515e-02 3.974224685425039455e-02 1.047450877077795231e-02 -1.094644454728077726e-01 -9.068517086959126949e-02 -5.278421185288263706e-02 -2.292829158140013632e-02 -1.308463303781327858e-01 -1.396303068634036637e-01 -1.171922933170743836e-01 -6.741120809585755824e-02 2.651495458849277911e-02 1.387945601303926246e-02 -1.136620269358214891e-01 -1.076836557122910765e-02 -1.044623206750151245e-01 5.815550402687132137e-02 -9.633791397666713330e-02 -1.636789696889805884e-02 -3.318952698252369826e-02 6.340614481447889861e-02 9.169379423208690039e-02 -9.285313327061638089e-02 -5.870715748790696076e-02 -1.846082978416642081e-02 2.030556747893462813e-02 2.569542721646796840e-02 -8.082204064347497940e-02 4.620917996173994763e-02 5.677844280341691474e-02 -5.355588135191651639e-02 -1.738180899117915956e-01 -1.359351622073035892e-01 1.249613640918547861e-02 -7.105569170021254488e-02 -6.428447862612839125e-02 1.881380770618905351e-02 8.184574552584523988e-02 1.303941402520814585e-01 -2.391347140947075456e-02 1.033023103511164498e-01 1.587317481938139291e-02 8.227086512533077212e-02 -8.310831244056408884e-02 5.013636162989514033e-02 2.019871276181436220e-02 -1.085418134459977951e-01 7.062314862691533579e-02 -8.359254842432990718e-02 -4.373322200602927645e-02 2.431713811138853931e-02 6.894247205982068083e-02 4.964746537431923706e-02 -8.476529320493490782e-02 -3.964675637295727445e-02 1.016872639195839784e-01 -8.052018484454027958e-02 -5.231438539857140996e-02 7.681151682387349355e-02 3.695742335114915456e-02 -3.001101503452804908e-02 9.352627415650743500e-03 4.209806210885590899e-02 7.760833376991872756e-02 4.515324675736110543e-02 -9.983353987272616456e-03 6.167513309056005949e-02 -2.273674361024370302e-02 -8.215520190445609050e-02 -1.072011777777810183e-02 -1.205013615720708919e-01 5.456394552624864967e-03 -5.843942441104337492e-03 8.335676422622174953e-02 4.841649900801838630e-02 9.599419295426263321e-02 5.056164323966060720e-02 -6.298201278464750363e-02 -4.910179946886834845e-02 8.529771782791240042e-02 2.690046610291674939e-02 2.152246848396836137e-02 8.302866955681280359e-02 2.965441756500060422e-02 1.013694858198754961e-01 -7.142213533368757528e-02 2.489048698905736365e-02 -6.698004845939982410e-02 1.075751496782007405e-01 1.113430250879131334e-01 1.192562431047339000e-01 4.088353616426436410e-02 1.411260340465130825e-01 1.304969470897217598e-01 1.051128857744939304e-01 1.026740779310783731e-02 2.375441793233739121e-02 -2.628465152604009258e-02 -1.585193144292292300e-01 1.174928342837717847e-02 -5.285736743711962060e-02 -3.330734155502106802e-02 -3.605863056762628055e-02 1.028693921148104568e-01 -8.692032809993213704e-02 -8.392444809485608004e-02 -4.710451867814716143e-02 6.974838657229753824e-02 -4.804430963835663176e-02 2.125400881268857747e-02 -5.927598189233670989e-02 1.149725569646023737e-01 -8.456583796923372934e-03 1.912031416894382357e-02 9.145551605999385769e-02 -1.130345281424763142e-02 8.588271961637916618e-02 6.351531975223709270e-02 1.052278314348904231e-01 1.699197868637786213e-01 1.309564781751198503e-01 3.720254865034269137e-03 1.970617084493483384e-01 1.525977204419722011e-01 2.071233334943540783e-01 5.960826165510320351e-02 7.458053232538446042e-02 1.122860508643275246e-01 5.699744266339357157e-02 8.954450801505521584e-02 6.021924421032635172e-02 4.454458072808064814e-03 -6.177212397155303070e-02 5.184391810535735751e-02 1.583880724890979197e-02 6.004724362960982970e-02 4.932477823720289589e-02 1.129356896245808789e-01 -1.423805162099754835e-02 1.331515179430965527e-02 4.153631875519311900e-02 -2.954380313035152861e-03 -4.259085882038909920e-02 1.843377281476340016e-02 4.684273060012270756e-02 1.203092788502597120e-02 1.542004858484157838e-02 1.403418178212904044e-01 1.623744305733226534e-01 1.843439462344700908e-01 8.459774434444317093e-02 9.927588062037796812e-02 2.370480426224655657e-01 7.886640755781201828e-02 6.057195642491741694e-02 4.357260433890956103e-02 8.331665574191862711e-03 9.904597407119115904e-02 1.769845543507956309e-01 4.519346432280579862e-02 1.148437876706173560e-01 -8.245333964906174928e-02 8.288466919026485358e-02 3.460475524593155990e-03 7.382074278166352033e-02 7.672248079533970644e-02 8.613195402532529410e-02 -5.113201641869044578e-02 2.009737726003733849e-02 -6.778069957090643305e-02 7.019382066848219026e-03 -3.107967328403826723e-02 -7.756559256130833580e-02 -1.187965018132763062e-01 -8.763706018194328262e-02 -2.292625449041213737e-01 -8.429393246374400350e-02 9.223321321663242867e-02 1.530469293160702793e-01 2.390546493747782442e-01 1.676119884001421589e-01 1.156301956224900368e-01 1.986730961883578228e-01 9.531728459568961087e-02 1.079344178838689827e-01 2.315839343506546633e-01 1.267125926244884737e-01 1.697431194807317301e-01 -7.705336451947193688e-02 -4.371368212237134593e-02 4.708627118482612561e-02 1.535053265465922100e-02 6.395367533304928409e-02 3.917814459783591080e-02 -4.620619349313676710e-02 -2.347398360228152708e-02 -8.952569124665335498e-02 -2.616818857227648856e-02 -5.782850212388271349e-02 -1.089690653535348858e-01 2.223387681749734029e-02 1.040415824451757822e-02 -2.080635897929303257e-01 -1.002259726629780995e-01 -1.517000142370523164e-01 1.366490165171414459e-02 1.763009900050405698e-01 1.151701248920921905e-01 2.546841814321420538e-01 1.515330137189651871e-01 1.296685372904512468e-01 1.711868389184261763e-01 1.894483504945031779e-04 4.302744746999091069e-02 7.840809375563648209e-02 7.281817140670841793e-02 1.610660279589960775e-02 9.019908243714862273e-02 -5.068970924574392467e-02 -5.820924132232347531e-02 4.624197178184195206e-02 -5.470909218763778809e-02 1.056391929835315963e-01 8.322146554985022926e-02 6.210037267015028339e-02 -9.976578035678847212e-02 -2.159690748453076958e-01 -6.854718707008729262e-02 -8.807569731202583019e-02 -3.224989529972998453e-02 3.103072630453609926e-02 -9.465639390269542375e-02 -5.956932168411843004e-02 1.485696164796115049e-01 1.989316996325013465e-01 3.301093578375202675e-01 2.776257372490830710e-01 2.007409788799059680e-01 2.616012625391250235e-01 3.159485955377155930e-02 7.412257184076567577e-03 1.212507874472970038e-01 1.780005874242797381e-01 3.456261749774511977e-02 1.196517168999222391e-01 -6.563728861677647908e-02 -1.085294708303014347e-02 -6.830288708971779532e-02 -2.619074636514353779e-02 -6.213356574341253463e-02 5.163339737676257007e-02 4.396588783559210456e-02 8.069147971385430551e-02 -8.733630815045523299e-02 -2.338959767216828023e-01 -2.252324096867311387e-01 2.663442009183559361e-02 1.481811909134642946e-01 8.157695845000462187e-02 1.606073827227523787e-01 1.490250081895760359e-01 2.919853501343952495e-01 1.381145971897403679e-01 3.565021385752858429e-01 1.619786168637790680e-01 6.539312703862318332e-02 8.997178924778768960e-02 -5.855977031385910248e-02 -9.836032509940345614e-02 -1.538879291011913120e-01 6.726526937478398763e-03 9.200686957584706949e-02 -5.786992703997675958e-02 -9.461687289463741046e-02 -9.590923066993532753e-02 -6.748336636646913578e-02 4.720301238845849012e-02 -7.537043863384125519e-02 5.387882033653858260e-02 -8.010873665575622346e-03 4.712167862491136588e-02 5.215464566502091281e-02 3.421173857586739392e-02 -1.249595287998869243e-02 2.032050592966851976e-01 2.236942994200878110e-01 2.982474680458272465e-01 2.460571730072402818e-01 1.120163955332893063e-01 4.591416770466481140e-02 1.037647162310153942e-01 2.914326176717272343e-01 1.842776850917912657e-01 1.835152463906918607e-01 -2.548431797966251369e-02 -1.530333238792467576e-01 -8.314166986547188998e-02 -1.088474881511086872e-01 -1.399925556597837739e-01 -7.699161397328853351e-03 2.729514475964956582e-02 -8.656023016072186826e-02 5.675135884836655237e-02 6.280313974857699988e-02 -2.854639739859619538e-02 8.359968499764533489e-02 1.907469684346725647e-01 2.260623826318873264e-01 2.205925039856699577e-01 9.959406509502945204e-02 2.340602254128566206e-01 1.373653686328903945e-01 3.598169604541120448e-01 2.260567153851045785e-01 1.803384297587796448e-01 1.749331606775740289e-01 7.630654950195495112e-02 -1.461884836377767838e-01 6.801136694262689686e-02 1.515543789517065087e-01 2.269257909305744947e-01 1.539135065961123039e-01 6.831060867361191113e-02 -6.184596170896575207e-02 -7.731131769907031992e-02 -2.997554280414194694e-01 -2.027566645116818111e-01 -3.874606049154064730e-02 3.824880999400616204e-03 5.205229571763834301e-02 5.166100487838902466e-02 -7.201099746705474924e-02 7.655534293241593458e-02 5.616191149903095037e-02 2.001622260898157923e-01 2.283841579489092610e-01 6.057399907367259917e-02 2.419891641245610348e-01 1.877728186993613546e-01 3.714699329726900423e-01 3.131151175950714349e-01 1.274346222699878628e-01 1.291049410662121477e-01 1.131487140187100032e-01 -1.393070303677171051e-01 8.785208950478779963e-03 1.376584977457639136e-01 9.353903928670459500e-02 1.935015861043275776e-01 1.079278852638192038e-01 -6.244442091030274339e-02 1.130524848481477204e-02 -8.773258164575037377e-02 -2.696291546926204430e-01 -5.922844383692614512e-02 -1.368869078771843550e-02 -5.780553060378665342e-02 3.832438212815950096e-02 6.448224574499038242e-02 -1.190506029920716802e-02 -7.702146517855336383e-02 1.168607924355053417e-02 7.410516821744238258e-02 6.385474866238072256e-02 2.317030580669669076e-02 9.084666554882338263e-02 2.304779422360130337e-01 3.103461485207137938e-01 2.945374211254800367e-01 4.867771394486000713e-02 -6.813873908506487553e-02 -1.804996035823720757e-01 -3.958886007006382490e-01 -8.732961331483907186e-02 1.733042772109430127e-02 9.463368208508919632e-02 1.587695915045578832e-01 1.511545655524007825e-01 8.768655561587551661e-02 8.649419918249678929e-02 -1.736547729584789201e-02 -4.284967465599882203e-02 -8.476479654243226913e-02 -1.278397778207645830e-01 7.061485534962017030e-02 -3.304462475017992673e-02 9.816752533455272781e-03 -5.734413296949641276e-02 -2.541417119111720815e-02 2.165849601057270174e-02 1.486995984252523773e-01 1.635076619017665489e-01 1.948498963896375807e-02 2.485885454847134857e-01 2.529232035017289215e-01 -1.042261759726093549e-02 4.463921581409544675e-02 -2.118854883337191464e-01 -7.129646418388992102e-02 -1.864193667934896104e-01 -3.488476635022098038e-01 -3.310858255434637881e-02 -1.457185099434326891e-01 2.884574819243752516e-02 1.460484030971844482e-01 -2.094885037928427562e-02 1.295246371672221231e-01 9.862918193937271483e-02 7.824467415578664764e-02 -4.569935711638072051e-02 -1.553337191306125020e-01 -9.053490799194689742e-02 -9.062047290498216612e-02 -7.535458355590579638e-02 4.662231888336590413e-02 7.501345377909357515e-02 1.047512024582887558e-01 1.100926465555450706e-01 1.418062920980561192e-01 1.391541226168963863e-01 1.562651264564304809e-01 2.195898444364574043e-01 2.276750492017570460e-01 -1.803019924938402754e-02 -3.061290003416907157e-01 -3.172874923503750666e-01 -2.901975641918968507e-01 -2.500187832086682715e-01 -2.800133869686849408e-01 -9.152448294350477853e-02 -3.434694219912290706e-04 8.190805631867981162e-02 9.728053832853306160e-02 1.564907575933919825e-01 1.560576356933548459e-01 6.275795244250050031e-02 1.001957006183483156e-01 1.294005602312752259e-02 -2.084809427183717534e-02 -6.468344916742830956e-04 -4.974615100238757859e-02 9.048312528071193739e-02 1.288059562875586844e-02 3.872262038107290166e-02 7.202795379861114122e-02 -2.608044929075586243e-02 -9.165118882825389057e-03 1.292661517488121470e-01 3.260480711624970662e-01 1.588254068793195639e-01 2.278332785189572940e-01 -9.656760406148499898e-02 -3.012854019727071453e-01 -3.072787366968794953e-01 -4.393913268814041984e-01 -3.216552717440265274e-01 -1.996236284103499459e-01 -7.444451352313918857e-03 2.254241440550180942e-02 7.002721201891796976e-02 2.994953047635661586e-02 1.052910958790999330e-01 1.621182060033105610e-01 1.065908048249540885e-01 1.015641330825879651e-01 -6.300171563314549417e-02 -1.765753225745752553e-01 2.134608546923552966e-02 -9.008389934315697012e-02 4.682686878438789557e-02 1.404176544504538021e-02 4.909624171284607957e-02 -9.121411488660877143e-02 3.414068416248042248e-02 1.317633012569535411e-01 1.063847579616366418e-01 1.320437028778828625e-01 1.628636151647982755e-01 1.666389507913584589e-01 -1.827606752287068148e-01 -2.305450280884202563e-01 -3.723372718203171727e-01 -4.106509272258772603e-01 -3.107031569555326889e-01 -1.678947019497745996e-01 -1.537666010719260234e-01 2.119149602614864986e-02 4.948249983323989992e-02 -3.932698974566221223e-02 8.648302494278509167e-02 7.020342375955948566e-02 1.512564058948518975e-01 7.044639606485575412e-02 -1.078540746889217750e-01 4.714906174634608815e-02 -2.411413051933578022e-02 3.092076751060767945e-02 -8.182856070711497232e-02 -3.230524446640958836e-02 2.926920402688339140e-02 9.305320148613996367e-02 -4.447829692242338817e-02 1.104338528485764859e-01 7.974304615599547841e-02 1.709659404732588942e-02 6.768964354406366291e-02 5.823700201103603619e-02 -8.601740505961824601e-02 -7.009137254930819516e-02 -1.813266185715105561e-01 -2.124868620252766960e-01 -2.354459180187132850e-01 -1.710740525318271976e-01 -1.262982737003332523e-01 1.184948574597931986e-01 -1.321021371649483932e-02 -6.490250838188542370e-02 3.015850170702836022e-02 -3.273295528005890770e-02 1.478444561795296680e-02 1.642151659860072999e-01 2.040975844916292914e-02 -6.214784911809567020e-02 7.437770313715222868e-03 -1.040417229627661755e-01 6.458043533078054038e-03 -2.686627296385908897e-04 2.764683917117000816e-02 4.289976726540633417e-02 8.248675151447595888e-02 1.067383575512405036e-01 1.506188683979081955e-01 3.496006257697559759e-03 -2.248713189519604277e-02 -3.704444546108188324e-02 -5.180482988790122145e-02 -7.358345451513155500e-02 -1.977397979684862583e-01 -1.532489514061507740e-01 -1.795319311971595444e-01 -1.929284792626545508e-01 -5.307021264347830392e-02 1.613986353315342154e-02 -9.386141019073242220e-02 -1.886322834889660738e-01 -5.124854729497235056e-02 -3.880204378523954140e-02 5.086651822882778257e-02 9.349750827394651131e-02 -1.159172688332467671e-01 8.553874715434020559e-03 7.500404078955767717e-02 1.411432262771933517e-02 1.828765095196652852e-03 -1.096579424537709631e-02 -9.666993253689852572e-02 3.943612999911540878e-02 1.018790746302320194e-01 -7.626304622202273453e-02 -6.927049220700612353e-02 9.014601250265716348e-02 -2.168331979521394282e-02 4.452509317213336482e-02 3.991993739937685880e-03 -7.763585770712544409e-02 -4.317194048405473966e-02 -1.079579561221743339e-01 -6.901265507279816247e-02 -2.035671919141874564e-01 -1.459907379087805046e-01 -1.312009960587441071e-01 -1.671963261580849402e-01 -7.910492784323316928e-02 -1.469478781521965649e-02 -6.905410750026826083e-02 9.999823939917580617e-02 -8.146664102801302876e-02 5.388414893138687017e-02 6.451027551274149396e-02 1.395502605372872518e-02 -3.241224707421488244e-02 -5.443392881942250155e-02 3.817275203344722145e-02 4.759674159244930980e-02 -2.040501965960248368e-02 -6.479196273596135591e-02 9.727597857906715439e-03 4.662291689039076842e-02 5.687831260569342628e-02 1.855281006456279969e-01 6.696320864383549509e-02 -3.408560282342237152e-02 1.097881388644673939e-01 4.462276770977269269e-02 -1.468623025324994613e-01 -5.371733884287524519e-02 -1.796121276271400447e-01 -1.543966775490511201e-01 -2.419395634437005727e-01 -1.127213886312953550e-01 -7.357775330206363373e-02 -8.943948259815782953e-02 -5.149551845205234402e-02 6.391770712522212849e-02 2.015014423095147500e-02 1.436440847461997912e-02 3.699726682291950425e-02 -7.732438413543886446e-02 7.378243134575562800e-02 -5.180581238865143018e-02 -8.674688728951623906e-02 -8.309155987734989646e-03 -3.173783550331607528e-02 -7.754830187398402408e-02 -2.282758450880111381e-02 7.441425506919376043e-02 2.417099852439442281e-02 1.494247129282882669e-01 1.645597880993172057e-01 1.373311612395680947e-01 1.713216496673492240e-01 9.963978117113564403e-02 -6.167302687769572744e-02 -9.423541836757760859e-02 1.724963179576136096e-02 -1.546593519985131615e-01 -6.599649779270862215e-02 8.364055542083091710e-02 -7.373449433775862427e-02 6.890165052477942309e-02 1.940704658166955698e-02 5.704851083618358437e-02 -3.844791178377313795e-02 4.237903246863923556e-02 7.574236777702746115e-02 7.482339897540982686e-03 -5.100271059111192301e-02 8.340229517716177265e-02 6.491198725726179952e-02 5.414627654383166733e-02 2.826557103663141293e-02 2.030081062277828974e-02 3.376273090783861452e-02 1.586499377274979139e-01 1.539180008646928444e-01 1.807232451245922855e-02 1.704703247632362029e-01 4.729471834866353502e-02 1.130113582462259209e-01 1.209475125713538463e-01 3.173824094377371979e-02 8.521807068165572485e-02 -1.632491741344345437e-02 -3.975364796714198415e-03 -1.386624153917332368e-02 1.568837552808945990e-01 9.808442873876646595e-02 3.705211206223071874e-02 4.383996365436519660e-02 -2.665451250155417839e-02 2.789077200643990534e-02 5.714820068885872323e-02 4.812795201341566603e-02 -7.507961963304594921e-02 -5.954800136982878883e-02 -4.490117093587060737e-02 7.167538633434752948e-02 -9.733318359099306372e-02 4.510295095949007349e-02 -4.789404484485653563e-02 5.939903714738650753e-02 9.790801270760642050e-02 -5.007204480512717631e-02 1.943640589517777947e-02 5.452574569205844747e-03 7.734224914151122121e-02 1.254426926244426865e-01 -1.706846997702381533e-02 7.335331075764726927e-02 7.435871173086575081e-02 1.396400353231256330e-01 1.373832437901096604e-01 1.263689287182765963e-01 -1.298292650058142754e-02 9.614178461360128880e-02 -1.322096491189335074e-02 1.151702098063855928e-01 -2.253871008275792204e-02 -3.253830891987398444e-02 1.403676387540719710e-02 7.725497512237906872e-02 5.947290227010002678e-02 -8.722143409369337297e-02 -8.017486192980123605e-02 -6.139727363847560793e-02 9.354410642932947662e-02 3.997180858098231537e-02 8.909792172768959961e-02 -5.051915763405001591e-02 -4.181936949658477537e-02 6.286154140797624301e-02 8.476826402749408629e-02 2.937033650547467636e-02 2.523648124145730712e-02 6.251421424982923913e-02 8.714720117771173474e-03 5.896494407950492872e-02 -7.053420039312614798e-02 3.543765573393512728e-03 -7.669317648771983853e-02 3.866621380165823508e-03 5.817062179344224815e-02 -4.174669686149014292e-02 9.434739986994540584e-02 3.930364997591712095e-02 6.935688054260658042e-02 -5.676819016211751695e-02 -8.801342841112747006e-02 -6.764172874000236313e-02 -7.475920549049380748e-02 9.203458523026794569e-02 2.412891498305447247e-02
-7.735086884234693150e-02 -4.214240637776778264e-02 1.427641044596653086e-03 -2.241071075454922901e-02 3.718929678618868029e-02 -5.224212072846754623e-02 -4.493708140954158492e-02 6.832909377280713126e-02 -3.949752288327330885e-02 7.733286261870883638e-02 9.877578197238887081e-02 -5.156724923184435178e-02 -2.110377206630804220e-02 7.023829383518215286e-02 -7.136884364128989744e-02 -7.431787947036969100e-02 2.236541952117268583e-02 -3.099397946430695883e-02 -5.250508271435621460e-02 5.216544986912016735e-02 8.701602196869479000e-02 4.368205176868616979e-03 5.121435500145535280e-02 -9.339347813776657792e-02 7.998071560597858065e-02 -9.352191147283595019e-02 6.555007238276200354e-02 1.496345234917459410e-02 -4.893266724979590532e-02 1.616465045034982950e-02 -4.509349180855187766e-03 -4.516222217126972943e-02 -4.640080127226235696e-02 1.484333320499187266e-02 4.769381073116103070e-03 -6.985058086190779059e-02 -8.501992019061835326e-02 -4.865771781736089735e-02 8.071247658940526593e-02 1.872676444873818194e-02 -2.556059165171255948e-02 -4.738726193651592727e-02 -4.346011973442413800e-04 6.765946831479907608e-02 9.505187475493503957e-02 4.712056738159864366e-02 6.606106194759962802e-02 5.116663762867255938e-02 -5.885682121824753477e-02 6.762114784011534485e-02 -4.660983721735233870e-02 -4.023155084311384744e-02 6.506480638607919920e-02 -5.085575737208141572e-02 1.627261992766645959e-02 -6.400676841992311572e-02 1.161290803011444384e-03 7.722950402556025273e-02 8.241120339891529201e-02 -7.534074840557297703e-02 -4.022418686133409638e-02 8.484137482857210047e-03 5.563759197959211589e-02 4.338677992515398152e-02 -8.312640332323889547e-02 -4.787541849074367084e-02 -9.967544597555207109e-02 -5.000715523366262849e-02 -8.079613636197262305e-02 -7.638205460665825619e-02 8.507989273398285091e-02 -3.602704827112128416e-02 -6.886064107414892332e-02 -8.647021270396733350e-02 -1.073029668912868495e-01 -3.512193900056510137e-02 -4.384262341342527042e-03 -2.380040713445083500e-02 2.134503486868356142e-02 -9.984526461099307859e-02 -1.864987919470972172e-02 -1.962828110914368457e-02 1.208007741358474441e-02 1.885746332286805660e-02 4.660679046473983900e-02 -2.226508802479439109e-02 7.336058194014596912e-02 4.799203243784472966e-02 4.663802731918526012e-02 2.945749800854166080e-04 7.181465435590116131e-02 4.473093457472985743e-03 8.011032456444461616e-03 -5.242490615814850152e-02 -1.050133363232003125e-01 1.089307161778481359e-01 6.039428882313933183e-02 6.475505869070047327e-02 4.839236479066749697e-02 1.171224269524173689e-01 7.857373435441498966e-02 -5.762978030316543571e-02 -4.300859914617115309e-02 -7.188113762672344864e-02 -1.467033437186391065e-01 -1.146426261233186028e-01 2.793083529414874810e-02 3.655852393429051550e-02 2.223094248407412807e-02 -5.001157092925092446e-02 6.560942077439273212e-02 -2.482499413531097376e-03 5.147750508700513206e-02 -8.926373960132415186e-02 -8.045394337689584785e-02 1.170633518668522111e-02 1.052440611484094513e-01 6.973782287395131896e-02 8.756416052174345599e-02 3.185401075189642217e-02 9.058599491502478118e-02 1.388877270843532352e-01 1.457751330874436646e-01 1.046360101176224411e-01 1.674681645362744165e-01 2.988095296447398352e-01 1.595274625027258142e-01 1.472185178345806755e-01 4.072071556851568352e-02 -9.690631827098739048e-02 -1.405866757310176296e-01 -2.221802619303665516e-01 -1.431779848545034206e-01 -1.875918327033715416e-01 -1.909062255551636778e-01 -1.645425961763647971e-01 -6.821995761913915435e-02 5.389147939450561475e-02 4.704113630584464550e-02 7.666680511243138818e-02 -6.849086143972582530e-02 -9.954233174143525820e-02 5.272287889819633755e-02 1.874277082757384210e-03 9.281467646541641248e-02 1.179110420139459908e-01 1.061463797285573385e-01 8.505651474889257269e-02 8.103695204065326785e-02 9.232960298486557471e-02 8.236073249244049710e-02 1.306550347002291279e-01 1.096906659045461668e-01 1.034563016984205580e-01 1.543652788334174131e-01 1.239342446401943687e-01 -6.392368139620140111e-02 -1.981854250647407112e-01 -2.390963076532329756e-01 -1.534662154986784766e-01 -2.340097778424214403e-01 -1.673473971808883964e-01 -2.820307899551111053e-01 -2.282066807264114261e-01 -1.337521976781236022e-01 6.464419280597176465e-02 2.430582088357913575e-02 9.503727607544081024e-02 -2.814211671352290223e-03 4.944338950464968047e-02 -1.939958642741898640e-03 -3.868731699472246349e-02 1.629466012844947576e-01 1.536168497358019192e-01 5.976383410421824693e-02 1.139660022370623527e-01 1.746767925370116825e-01 6.480652765854144626e-02 -9.347557893757853361e-04 8.005370117305654620e-02 -1.457791512388419974e-01 7.397337469442916147e-02 -4.861065186017440864e-02 -4.002696161156253651e-02 1.271039808629922108e-01 3.848190560241739056e-02 3.961152106032484604e-02 -2.895958975493228005e-01 -1.741135385055745388e-01 -2.021412421578387131e-01 -2.170180538750764998e-01 -1.792741996861993425e-01 -1.387376143190287292e-01 -6.649662448931176195e-02 3.438088099060020858e-02 8.395260578864079115e-02 -5.993402386267979165e-02 -1.863053518393630037e-02 7.926561167282392129e-02 1.065818669132490154e-01 1.366162880110288746e-01 1.450538837760101119e-01 3.615583042996103891e-02 -3.341150135600273741e-02 -8.722808280985140661e-02 -1.149156829015046399e-01 -1.505526338600883807e-01 -1.391702545465416663e-01 -1.862206174727991936e-01 -4.501772741883062340e-02 -6.541263664812636824e-02 1.386629621029741855e-01 -3.919518364821521911e-02 -1.413033145818962943e-01 -8.769384659394170722e-02 -1.610490672543895552e-01 -1.121110238907329776e-01 -2.718070632373122408e-01 -2.682573271508080781e-01 -1.962044582318099584e-01 -9.287043380124586356e-02 -1.072480937936160506e-01 7.335355832015413857e-02 3.611647598978076634e-02 3.945246164930531207e-02 -1.692714774152686771e-02 5.849100556389430494e-02 9.805716742181322387e-02 2.815918796896783594e-01 1.204973727636832470e-01 1.728449117221738385e-01 -5.003768192500493428e-03 -4.001699965815079529e-02 -4.325902451685090938e-02 -1.577349037533943565e-01 -1.937712362293227686e-01 -1.084469356635339304e-01 5.117377324469395139e-02 2.353577923777828707e-01 1.286834321306598306e-01 2.164132081345615174e-02 1.498205578171350194e-01 1.364838189442532934e-01 1.600934757146738052e-02 -1.003186121003994818e-01 -1.107428328286425429e-01 -3.287898861630649261e-01 -3.587867227154799554e-01 -3.270984623448084938e-01 -2.060492647017586332e-01 -7.554697622709784233e-02 -2.929871923134211645e-02 2.602676847759588172e-02 -5.228099571397696460e-03 -8.908488101106261381e-02 1.575962019185978558e-01 2.573343607222337570e-01 1.750509935891942370e-01 1.359367754743691925e-01 2.055980659001018299e-02 5.450460269303453870e-02 -1.856735948020710736e-01 -1.323438318405981695e-01 -1.770387923485115533e-01 -1.549757989801977820e-01 1.694003387550193362e-01 3.871425734579645450e-01 4.157115593959563316e-01 3.477228691917936265e-01 1.092960062161793672e-01 1.533255494460306900e-01 5.324691975516888248e-02 -1.010513772512094260e-01 -2.098060873211238242e-01 -2.059896562444934187e-01 -3.883034457227069192e-01 -4.046114487769171819e-01 -1.837390929538108286e-01 2.422545178007859748e-02 5.196765591654876892e-02 -6.213201685122184473e-03 4.327504287942545574e-02 3.860494003638556548e-02 -1.376367017712765671e-02 3.030456148575921826e-02 -1.074745035741291738e-02 8.261195353058969904e-02 -1.064087777518288314e-01 -1.708024166977998859e-01 -1.546141589389292970e-01 -9.366434169041294722e-02 8.060455365711087505e-03 8.491889397445225030e-02 2.104783769751083222e-01 2.282261145549030479e-01 3.001375566009099605e-01 3.292246986736581671e-01 2.195397622516043756e-01 7.302130379530448467e-02 1.040123450356151696e-01 -4.313864461493147062e-02 -2.632679131287243290e-01 -4.136905784080798787e-01 -4.385048007708308715e-01 -3.466547711349252658e-01 -2.705533915395670896e-01 -1.373793417498095082e-01 7.039196846769252280e-02 9.605030462845995376e-02 -2.873640205856519206e-02 4.392251705367256759e-02 1.473435571297244118e-01 8.971876526424754639e-02 1.037725262447515562e-02 -1.509148275188894883e-01 -1.379201748855440335e-01 -1.693538916305254716e-01 5.024146553479397898e-02 1.966738520336550611e-01 2.623648496303330191e-01 8.917819850120839442e-02 -6.992917984184827962e-02 3.293431875265703246e-01 2.486614811783393608e-01 1.445578852632705691e-01 1.839460762109446923e-01 1.320552987474630235e-01 1.600936729829833260e-01 1.627607238109151644e-01 -2.862643685429532292e-01 -2.117090598323304873e-01 -2.392386040366890620e-01 -1.944455985202303561e-01 -3.098993332887635746e-02 -1.029914036201926703e-01 -9.101158440329037980e-02 7.476658890644458100e-03 6.191809989168467476e-02 -3.244849431938760104e-02 -4.286238534620838425e-02 -7.128312451544598083e-02 -6.086992404268849743e-02 -1.940733050051693109e-01 -1.089954780233741150e-01 -5.020715311658369845e-02 1.779150594872167257e-01 7.296610176034809547e-02 -7.485764314524151475e-02 -2.146095844878746495e-01 -2.182215944953087849e-02 4.130154969651991248e-01 4.019956517982468669e-01 4.026907369894905941e-01 3.057443395792989738e-01 2.720779552018188219e-01 7.973320233358106857e-02 -4.693997728630516786e-02 -2.405473737766623821e-01 -1.582850188919414647e-01 -1.339881193632740941e-01 -3.441481360632493020e-02 7.974490941357083307e-02 1.924390938234967624e-02 1.402756145383030409e-02 6.513738996595316855e-02 -3.769572558049760075e-02 -9.069691313717051853e-03 -7.806831866599327208e-02 -5.850699210461942495e-02 -2.202307202332179081e-01 -1.733328043369048721e-01 -1.188247532059758388e-01 1.029626930958749825e-01 1.214570933735194258e-01 6.972553666934583338e-02 -1.876960335317927886e-01 -1.825252929575416072e-01 6.519352871703497365e-02 4.486082112136099420e-01 3.769091798457926967e-01 3.491281302835099187e-01 1.477042965792621787e-01 1.676982524891405257e-01 -1.145743872299344324e-01 -2.417105000213641830e-01 -4.001877124337951397e-01 -2.232786493802815797e-01 -2.657622309889099976e-01 -1.253952667926897802e-01 -1.010850250586283472e-01 8.971517644047363738e-02 -9.247980482631305843e-02 -1.006536146123356984e-01 8.777268972308231720e-02 4.840460824964554210e-02 1.830616422168199545e-02 -7.844159892295037018e-02 -1.444545100721788544e-01 -2.941836566958382360e-01 -2.805166189522467768e-01 -1.296590885907581703e-01 -9.945500278999952481e-02 -2.699181441051323183e-01 -1.346478129202970109e-01 -4.960004496217353814e-02 2.438636092635897423e-01 3.597709856021929498e-01 2.161199544545762685e-01 1.918504278875263758e-01 1.441711463745346256e-01 9.085528591128332054e-02 -1.521217511296845404e-01 -4.491650076584213780e-01 -1.631398349546964444e-01 -3.044559743977909849e-01 -2.506134574160852058e-01 -1.725049614083877525e-01 -8.119306818628618805e-02 -1.180798399217479651e-02 2.809211806928632246e-02 -4.561424963110562170e-02 3.286969938862875640e-02 9.374610730724551588e-02 -1.823978322565785685e-03 3.305972860592053947e-02 -1.682580126989868252e-01 -2.535481528607678725e-01 -2.089365634266753535e-01 -1.278166919479153951e-01 -2.175809677725319136e-01 -2.303917697708149359e-01 -1.352224758269815474e-01 -3.467093027614199380e-02 3.545327589995936890e-01 2.921151880907689180e-01 2.087559815395947649e-01 1.369454370672181232e-01 -1.806100388494901593e-02 -2.635655698419033244e-01 -2.875558151185254041e-01 -3.378735458781666479e-01 -1.576998869016691396e-01 -1.056465648425785331e-01 -7.223296404205002685e-02 -1.310936402360066422e-01 7.987419526044491069e-02 -6.166614107655171012e-02 -3.175971210749935214e-02 1.083846640915191867e-02 -1.977556574319432395e-03 -7.019022500700830558e-02 -6.578526516044460974e-03 1.175966880214177612e-01 -6.294373706996042594e-02 -3.081913578748320393e-01 -1.726145926562450972e-01 -1.540295295351575833e-01 1.253220297122634684e-02 -6.626920331793391405e-02 -9.594948426121741036e-03 5.057755774310816049e-02 2.619788953569170409e-01 2.365126391823306196e-01 -5.658131080009209252e-02 -1.628023306969509365e-01 -2.410906300241308087e-01 -2.692094127895363065e-01 -2.420493949341339102e-01 -1.385001641682041262e-01 -1.302324898230295402e-01 -2.737892650061077987e-02 -3.880738609778380116e-02 3.907745510957476992e-02 7.442533565861401967e-02 -7.713927923443758550e-02 -3.704710022660458180e-02 -8.225173432702265197e-02 -4.685710214940239093e-02 7.215758771909037972e-02 1.404880709549688189e-01 3.250897988553107937e-02 -3.426372057223011081e-01 -3.054018251121707328e-01 -2.886545225757363164e-01 1.568640534481753612e-03 6.851844629629785799e-02 -5.167414612553195181e-03 -1.152982537178836447e-01 1.300949747900273339e-02 1.521441381799718551e-01 9.494759214441352013e-03 -3.232231263297453139e-01 -1.745068120090337571e-01 -2.587410415287952348e-01 -3.240629767902628577e-01 -7.502150784205878498e-02 -1.468305682167714288e-01 4.860152848507591494e-02 1.155899200637202917e-01 -4.653758742415214922e-02 -8.023214242452553213e-02 1.697580864087432431e-03 1.044411242584027122e-01 -1.246576004930298812e-02 -3.763209326916600039e-02 9.638754190299526903e-02 7.227528545365495549e-02 -7.401796599245771477e-03 2.173220537135610655e-02 -2.065955603775534999e-01 -2.401321763042551793e-01 -1.459981646630220120e-01 -8.118327001672790214e-03 -3.964233264099271264e-02 -9.533632141222254941e-02 -7.598613455551120333e-02 -2.472195399633563828e-01 -1.788560924568043942e-01 -1.324334321874874043e-01 -1.802520922914576662e-01 -2.475153888636659749e-01 -2.138664715900018554e-01 -1.425311338456949628e-01 5.569411166309476413e-02 1.046783923879920919e-01 -2.643950866394961449e-02 1.736566924186341565e-01 -5.187743043109120655e-02 7.300554035670046849e-02 -3.662304988175055578e-03 -6.716407300201254760e-02 -6.179128079644837651e-02 -6.847583781393024689e-04 8.141151095579703123e-02 1.269117899296089494e-02 1.495529158310042375e-03 -9.093186358587246332e-02 -1.328244017379914543e-01 -1.608968042118441300e-01 -8.074258337253371887e-02 -1.325301081587418328e-01 -1.015328899510784810e-01 -7.169899848912196505e-02 -2.985142057549095562e-01 -2.269129611639006117e-01 -2.094328645120515364e-01 -2.049476973720832373e-01 -1.210164643601021051e-01 -2.643871238320998768e-02 9.954424329457642329e-02 1.529239069784943117e-01 2.998635465864950278e-02 1.111437904026136153e-01 -2.903307438504639307e-02 1.595430492274535761e-01 1.245577361385816623e-01 4.127385560315456614e-02 8.359914670496233768e-02 5.969243311532145685e-02 -7.215499431691202448e-02 1.825920419380336335e-02 5.825491814920671224e-02 6.706688410536833234e-02 8.892846194998622888e-02 2.920920166126945994e-03 -2.584810820713929203e-01 -5.711873033487911699e-02 2.414096527108538798e-03 -2.190501856494327798e-02 -3.361913129539934042e-02 -1.857975695728455168e-01 -3.106634975667064702e-01 -8.924216334662660177e-02 4.935860787164196573e-02 4.606777458248421941e-02 -2.394944103861210496e-02 4.622101708257713576e-02 3.664002307814906347e-03 4.338870494071304929e-02 2.124849901236526839e-01 2.074560631210076722e-01 1.053300545988858222e-01 4.211349166205295008e-02 3.705342222883940134e-02 -6.826637915989518246e-02 4.229983900209267900e-02 -6.849111026138070268e-02 -5.711384307359411439e-02 -4.218205159474836680e-02 2.674453020502274084e-02 3.804067228646176857e-02 -4.067312170738258958e-02 -4.244972945082194082e-02 -8.314617995801026548e-03 -8.443166404658906943e-02 -9.758006183254848420e-02 -1.474287585842814219e-01 -7.563512726142287979e-02 -9.402781195495471533e-02 -2.350491429285987977e-01 -2.531189473991691252e-01 -1.313306240850842244e-01 -7.942896045634080526e-02 -1.962718448942653987e-02 -4.366860312982427661e-02 1.555085510217762423e-01 6.466541106214256096e-02 7.433815464884781232e-02 -5.057525133633315739e-02 -3.786588885764340107e-02 -5.167117257984635281e-02 -7.285634442337499128e-02 8.825416565568085236e-02 -3.799985827042619280e-02 -6.209762366472956069e-02 4.762482022728134479e-02 3.922940897578532093e-02 -8.956086812702974964e-02 -5.404509247042365433e-02 5.122851731694800376e-02 5.516662423893645140e-02 -3.468153045325105682e-02 -8.546539423481558373e-02 2.916514965098464945e-03 -9.325160841130909761e-02 -1.181132426916008671e-01 -1.764531857906286583e-01 -1.273001233794499309e-01 -1.678990973094139083e-01 -1.366326142859694281e-01 -4.334154759167134496e-02 -1.244104205956814702e-01 -1.018161717435088140e-02 8.617406933141849579e-03 1.811500990379608100e-02 -1.318390480914518638e-02 3.810546725568181303e-02 -5.635589203869898617e-02 7.637317226962007932e-02 -4.358000901950830758e-02 -9.120553057946227671e-02 2.649853624926804332e-02 5.028577203804115991e-02 -5.418171005973399651e-02 6.447242781486248187e-02 -2.080719105785093503e-02 4.188597911938391621e-02 -3.211624233588783028e-03 -2.869892266245751763e-02 4.816246598215616348e-02 7.362222513592114881e-02 1.237336757118674968e-01 -9.127567134895932244e-02 5.657728806413900302e-02 -8.482975307889321914e-02 -1.697343276394377987e-01 -1.334406247895532915e-01 -6.482879232610964937e-02 -2.058360627230798601e-01 -7.451150783005359990e-02 -4.287391041846014966e-02 1.871017594305404430e-01 1.447036522030038519e-01 1.773046330027246986e-01 -2.628341820099602821e-02 -6.887260425810975972e-02 -3.905897324598169712e-02 2.945568062760015385e-02 -3.994003810631917284e-02 -5.195757617265406303e-02 5.205533057397802865e-02 4.029749555320388810e-02 -4.711446429756185883e-02 -3.164325207242968396e-03 1.061516065234128781e-01 9.840253244671968991e-02 1.186418127790463822e-01 3.214914941297084688e-02 8.687649052427588725e-02 3.714367946532554088e-02 3.350009300577609650e-02 1.624194368781952183e-02 -1.375706355049113316e-01 -8.589435897302126477e-02 -1.497631327763960241e-01 -2.304702831228707879e-02 3.009163598630390166e-02 -4.084157724885350421e-02 -9.434278662673575844e-02 1.108771422896512593e-01 1.508232872055820933e-02 -8.844556594971955676e-02 1.943895663070746918e-02 -6.523002094443856348e-03 3.298358029105026047e-03 -3.339964807497727145e-02 -3.636754540572059019e-02 7.114636645020035177e-02 5.156487579079595263e-02 -5.702530443671308125e-02 -5.427586274224423246e-02 -9.752028358943116981e-02 6.780836669925553728e-02 4.411611451039795968e-03 5.176397718754710553e-02 6.687848766299211989e-02 1.373822975317507966e-01 1.618748190076711735e-04 -2.358685373305181854e-02 6.316712146595096500e-02 -3.360254446635208003e-02 -9.318401176850210285e-03 -9.051316155482337644e-02 -6.249730208770016421e-02 -9.824163915364708677e-02 -1.273659037397925908e-01 -1.339704491294957112e-01 -3.990141219258611094e-02 -6.413114428726211791e-02 -7.237573385449026786e-02 5.063579097487001801e-02 7.987821471465315903e-02 6.507917493144955642e-03 -1.014992773706787227e-01 5.928252153971235588e-02 2.767130721754404096e-02 -7.025454958478241640e-02 9.050456717149824026e-04 7.484500418757983331e-02 -2.805471221551947281e-03 -5.794292476705323325e-02 5.811413855318538213e-02 -3.321493478150505663e-02 -6.376808060272662337e-02 -6.692944151561747157e-02 -7.856625885953939792e-02 3.763539745852797352e-02 2.053957893785891831e-02 9.386922836019802319e-02 -1.080953403453863426e-01 -7.563649974325487892e-03 -5.208721942824989792e-02 2.418789592360634684e-03 2.830788149482312346e-02 -1.023305761499801736e-01 4.420541439311415771e-02 6.203037843936524270e-02 3.366098367158855062e-03 4.087528853479282902e-03 7.159691450296934434e-02 -6.961426573687970465e-02 6.821958645850963177e-02 -1.594189250504562255e-02 -5.059234552179799407e-03 -1.501136504246927683e-02 9.573939286042151831e-02 9.733153212125850162e-02 7.009930656438964625e-02 8.093193514374683040e-02 5.327446179401726378e-02 -2.030847092405017179e-02 -2.971507707576859225e-02 -7.737345149141433565e-02 3.930265523346247736e-02 4.508915952055525533e-02 -2.729425914530784342e-02 3.097117918998271071e-03 -1.092674502925679043e-03 4.456221823302024265e-02 9.585759254030024046e-02 8.102001270717361370e-02 -4.798471192756933144e-03 -5.361770606565392089e-02 -9.514687951823810885e-02 7.850286812545646808e-02 9.802454090711458512e-02 3.627713213959342375e-02 1.094175871859018843e-02 9.293723870281800359e-02 -1.666831218175503226e-02 2.221535868447947759e-02 -2.951890124669591386e-02 -4.512453853005136267e-02 9.122425976401563052e-02
8.690705831706005413e-02 -5.289374766040749049e-02 -2.651499374613064397e-03 -6.366459786896024042e-02 -6.989623607521935900e-03 3.170141463782402691e-02 7.667884067307700890e-02 -7.669301056384920934e-02 2.867614610558374966e-02 8.292446222288127333e-02 -1.543094930565316880e-02 -2.378036167156190317e-02 -4.710238955746274409e-02 3.128377139242881355e-02 -4.430980055065314449e-02 -2.195765114504439480e-02 -2.696462738118868274e-02 -9.112729682952974697e-02 -4.413288414548852817e-02 -7.518838073547878809e-02 1.272767857500445299e-02 7.114545093178359370e-02 -4.279453860444242669e-02 -9.881006357555455200e-02 -2.118121752289095494e-02 6.169062088658169851e-02 -9.704242364098814022e-02 4.959363364307498023e-02 -8.817759640243945374e-02 1.327708863905201209e-02 -6.656223435457783721e-02 8.553318537558557422e-03 -1.735682381785154035e-02 5.843029999981846911e-02 -6.150510222981597774e-02 -4.761092761618531018e-03 -6.966423339830252193e-02 1.691455839257570773e-02 1.139629768320297477e-02 6.720644495856206713e-02 -2.734989081434869435e-03 3.781304714407628109e-02 5.629812114310395882e-02 -7.896291112558644423e-03 -8.335736104596412621e-02 9.151206590490129633e-02 -2.875516031613242415e-02 3.190286136053648025e-02 -2.937584511363146300e-02 4.221908077069952414e-02 5.957455351654915299e-02 -9.009268111731207063e-02 -7.890481638861729374e-02 7.400026160522898966e-02 8.654763448870905762e-02 2.602741132722419248e-02 8.713990342901653530e-02 -5.059856375690144348e-02 -9.523259354573486435e-02 -3.840458884339759821e-02 3.064036285947672675e-02 -7.798435586863164230e-03 -2.348833770658832754e-02 1.857985694858163908e-02 7.429159275059901354e-03 -9.017962636992452041e-02 -1.307491948541067428e-01 -1.192091826538746874e-01 2.757222870628911471e-02 9.417139567325882171e-03 -5.665403361935270055e-02 -7.687874389187157598e-02 -1.971781539097686858e-02 -7.572047490334709620e-03 2.738290626761731225e-02 1.177572731188261624e-03 -7.157409415789786622e-02 3.013467124798356947e-02 -2.498373413212827410e-02 8.087069395114776515e-02 -2.686350326673333025e-02 -3.255365394442401999e-02 -2.187659909265571301e-02 -5.801912238436138236e-02 -2.958395204471919726e-02 1.866409776697859624e-02 3.447402842534289663e-02 -9.877900868909259002e-03 2.382932105375144480e-02 -2.002306302009893707e-02 -6.832065868801412423e-02 2.558878115421072547e-02 -1.910594837549116701e-02 3.483274588577862929e-02 -8.643704356522056986e-02 -1.418242384948969204e-01 -4.375055350030047224e-02 -1.124733383180295809e-02 -1.809193895811692931e-01 -7.712471230497923436e-02 -5.406433333395697927e-02 -2.957062340172662493e-02 -1.890362878169902019e-02 -1.370123728346701597e-01 5.901630903977218151e-02 -1.171219938312611231e-01 -4.549544513503034349e-02 -5.172637378881406872e-02 -8.444107711664187998e-02 3.918110434921534546e-02 4.226402529438156447e-02 -5.756200042346511225e-02 -5.130921994853432366e-02 4.473144488070163877e-02 5.411951887302313136e-02 1.330689041261476184e-02 7.633802868268051156e-02 6.870873996965973229e-02 -1.014063656668950791e-01 3.288960050604420454e-02 -1.476628065353139674e-01 -1.657115194434105043e-01 -1.537297028472466576e-01 -8.190608827866666108e-02 -1.841780091637325589e-01 -7.948883798405188827e-02 -2.651157639197929128e-01 -2.431792420296167712e-01 -5.675234091044149137e-02 -5.534124660201596851e-02 -8.364264085873245047e-02 2.264996620672009298e-02 -9.260966245459377466e-02 -1.202256245763977556e-02 6.584512454801530468e-02 3.147919761395899518e-02 6.043794535298718015e-04 -8.988202990430685380e-02 4.888945858491040158e-02 -6.509921143038244207e-02 5.805953203480512803e-02 -3.832210358409265244e-02 -8.694471976403832236e-02 6.845347353329248041e-02 7.130948033068483516e-02 -4.015942316500434317e-02 -7.582928567480091975e-02 -3.579819773509017311e-02 1.038353763287377593e-02 4.806040315616073172e-02 -1.015005922934210103e-01 -7.619660890443548384e-02 -1.093827517898755680e-01 -2.231545345964414673e-01 -2.110272856224048033e-01 -7.018645660949184018e-02 -1.939750269295642537e-01 -2.227993070208584003e-01 -1.870925708343694760e-01 -5.653140744745057539e-02 -2.742023451788347735e-02 2.785933712519948063e-02 7.094543990011893675e-02 -2.598899512941582265e-02 1.574412630733007870e-02 4.599382183738234819e-02 -7.526899008890348963e-02 -5.937229054212331270e-02 -7.734980869897914446e-02 -8.276701866734889612e-02 3.883382971692633800e-02 6.880569516102282013e-02 7.871481416415836152e-02 1.240820113255014234e-01 1.992647344919368235e-01 1.888958518966900590e-01 2.704476670708533259e-01 9.947612438146676006e-02 1.667327075857641672e-01 3.768171787747260498e-02 -1.616325295361590447e-02 -1.983879994213150200e-01 -2.664110869951744620e-01 -2.998447910353155277e-01 -7.578304144000377884e-02 -8.222307768489858434e-03 1.225502716225733424e-01 -1.078866973715063848e-01 -4.182733064505957110e-02 -1.089624180908843193e-01 9.986165267574310944e-02 -6.752124222876880466e-02 -1.223328406432768189e-01 7.974129937548399966e-03 8.889029669818472590e-02 -6.898707014737520682e-02 8.678430996739494585e-02 -9.641825458948101446e-02 7.184887835884119778e-03 6.271036959970495428e-02 8.507530455822874538e-02 7.853449407245237726e-03 2.663839462981875683e-01 2.394734394261119892e-01 2.363553384341938179e-01 2.901234954749729034e-01 1.027675879523236857e-01 1.480994322912505268e-01 -6.468110186715869681e-02 -2.399591098337635342e-01 -2.507672685928765688e-01 -2.613893454453346532e-01 -7.451403438184814321e-02 1.845515160103190222e-01 5.773436397617209143e-02 -7.119064207680342359e-04 -5.821631015706165563e-02 -3.210896889415947725e-02 1.066691375575075373e-01 -8.494448153043410166e-02 -7.508718662906685437e-02 -1.096632134672448494e-01 -8.061737002332261537e-02 4.420081110883618269e-02 -8.647851660458465151e-02 7.844155308306210994e-02 -5.097562841905977499e-02 -1.563548343250763251e-02 6.653506936665830318e-02 2.009360159247942090e-01 1.832782416117718360e-01 2.200358387668002458e-01 2.386537628882985096e-01 2.394093579870760491e-01 2.045431599280924662e-01 1.435766260220903978e-01 1.535115848715721924e-02 -2.415515091378831469e-01 -1.252731249105590861e-01 -9.424034681761407628e-02 -1.387352076841960880e-01 1.960239285305567236e-01 1.215750071160679735e-01 -1.486694709434524531e-02 5.454327599280696381e-02 -5.409241429444076182e-02 1.064454529985544573e-01 -1.141575527376680332e-01 -9.086142249502100754e-02 -1.511267329712255025e-01 -7.122002750498400946e-03 5.131805108376770452e-02 9.670317927920911438e-03 -3.576980143189090883e-02 5.006798293044922854e-02 1.109798770805852097e-01 1.562095786451366264e-01 2.076737133616748110e-01 7.096605418324715420e-02 2.058480421595850762e-01 1.704321116563717320e-01 1.865652622076295619e-01 2.578528013061968244e-02 8.667675441829617022e-02 -1.925323704482333892e-02 -1.778693844186465256e-01 -9.561791135034641842e-02 1.846704407004442494e-01 2.087232261679579925e-01 1.295686698240808010e-01 7.147238224230464954e-02 6.758859173755914218e-02 -8.013309638196614015e-02 -1.712297136155556052e-02 -7.034995175948531576e-02 -1.058512818517773901e-01 -1.737435507866612883e-01 -2.640008405735050703e-02 6.066235665507236502e-02 -6.129692018527011649e-02 -8.061128520533314412e-02 9.546694450478498961e-02 -6.714715394491302045e-03 4.706020792191805552e-02 1.885260456826982067e-01 1.795400876096357456e-01 1.604312994000645920e-01 1.834207134336741096e-01 1.884551742615211134e-01 2.689074506554436916e-01 1.212146000294569842e-01 4.686874330147728501e-02 -1.219756084810001001e-01 -1.453749179047299223e-01 1.104194670118864019e-01 2.498180262892740477e-01 3.124787026331757311e-01 3.014752696580765834e-01 8.757762388438558587e-02 -2.162628552565788471e-03 -4.832807051036390987e-03 -4.803144220112864904e-02 -1.032406966268514387e-01 -1.195822324336428544e-01 -2.781647335909960203e-02 -2.698408221487396536e-02 -8.317000627792263401e-02 -3.219077261011778213e-02 5.011138963466534035e-02 9.590071174643919477e-03 8.044556690929534348e-02 4.956273721857110126e-02 4.622078045318020467e-02 5.375373966088552169e-02 8.959389542777493332e-02 1.108052435170016475e-01 -4.437929959917577549e-02 7.439143111462236113e-02 8.519202806328646238e-02 -3.288871791346748008e-02 -1.874873330681453010e-01 -4.328124101307325167e-01 -1.852201706818490667e-01 3.279393484515712442e-01 2.810068301781779576e-01 1.848301588420417085e-01 7.738597889109322114e-02 -1.678426159870244905e-01 -5.284882848344623490e-02 -3.208230653361426443e-03 -1.967823358344227835e-01 -5.587197210355898669e-02 -6.247846738512032039e-02 -5.192196684448798644e-02 8.520356210826209031e-02 -4.508594246126054056e-02 -2.280278173243573125e-02 -2.180378915867774853e-02 -1.021627971050175811e-02 1.638957007574052063e-02 7.896104062440628332e-03 -8.681347623432317251e-02 -8.188280691978870596e-02 -4.308477753180716546e-02 1.346042481758683296e-01 -1.176660464931265221e-01 -2.308928998746063721e-01 -2.512755887031922764e-01 -4.191368620133540945e-01 -5.684175673099663983e-01 -1.048593476070931729e-01 1.493943949534148052e-01 2.255032260455795134e-01 8.303696347694566882e-02 7.837822411493791663e-02 -7.984865357365114602e-02 -2.801984327668381389e-02 -1.554166775435170955e-01 -2.279386384945112087e-01 -9.797533521627553588e-02 -2.769773204817628856e-02 7.389371279486468824e-02 7.561004871036970665e-02 5.961168138623917229e-02 4.356722672218730358e-02 8.373739528550704081e-02 6.456651939585235367e-02 -3.856759577609981254e-02 -1.497625742337120036e-01 -1.941400133439069864e-01 -2.875210921842863976e-01 -9.859184331397599643e-02 -1.383269416005687147e-01 -2.279463591708204007e-01 -3.298281089679028777e-01 -2.102947625917571672e-01 -4.516133271770556568e-01 -3.661600217452792849e-01 -6.334851255760080846e-02 1.637688219969581083e-01 7.072572980550277666e-02 1.936197554028587231e-01 4.016146902678494751e-02 5.073608835524374971e-02 1.673519681803344733e-02 -1.753577117866699508e-01 5.834220660526774974e-03 -4.545959882755157624e-03 -1.352010356569147975e-01 -6.038731372834499345e-02 4.815039229388341779e-02 2.064833374777311908e-02 -9.947732668828343505e-02 3.095363818898066999e-02 6.521290110472238721e-02 2.690818542125025803e-02 -1.423789909025561795e-01 -2.617148895502992012e-01 -2.278389000529740527e-01 -3.014809005110001272e-01 -3.292763396993111935e-01 -2.408489464560729931e-01 -1.779279141513396556e-01 -2.020126927729979094e-01 -1.700074667060746392e-01 -1.668042192164849447e-01 6.550031256568333848e-02 1.354654927100508721e-01 6.522849937401446752e-02 2.133129907691294902e-01 3.272445279639759619e-01 3.191165874445148209e-01 8.260042257116177733e-02 -7.532264895746423883e-02 1.242355240139123435e-01 7.051203693959386121e-02 1.701021689795963882e-02 1.262078209962616375e-02 7.823946696194492012e-02 -5.353786562686642381e-02 -4.056143963361651811e-02 5.881090666696837943e-02 -7.067805632278856276e-02 -7.631321707162454226e-02 -3.467350866234735624e-02 -2.322845631432295666e-01 -3.055511193649340096e-01 -2.051366495838921056e-01 -3.774671923870311918e-01 -2.726033835971457542e-01 -1.661223020450234844e-01 -1.416138302902354429e-01 -1.215436915671863904e-01 7.363529731505868980e-02 1.627841258967379634e-01 2.444573273897787322e-02 1.250873431609673125e-01 1.357249071129024431e-01 1.368817135936648000e-01 2.216857704605387225e-01 5.317662760420974882e-02 1.730055079317665070e-02 1.199116573970196858e-01 -1.573644852313601725e-02 -8.218263888945645523e-02 -8.757921058207805698e-02 -7.092919409433329735e-03 7.645162292162870077e-02 -1.572396655982499433e-02 6.054377524125338639e-02 -7.118036684368919675e-02 -1.276523693950505356e-01 -1.646772137317693008e-01 -1.129933331725636175e-01 -2.104979758836791615e-01 -9.445206198415879995e-02 -2.243685706875953589e-01 -1.842825264849844435e-01 -2.148149698958998211e-01 -1.364023074056549267e-01 -1.203094607481012684e-01 -1.160160366550309213e-02 -1.388274562982471164e-02 4.756179519118681337e-02 4.520608694511553394e-02 -6.395662857213514629e-02 -5.666732724701008250e-02 1.129124412889787182e-01 4.775174713970891521e-02 1.382454426010112924e-01 7.429763203277925387e-02 2.753183435239489607e-02 -9.520407621700070766e-02 6.214383785736406207e-02 -6.128078213060612900e-02 -2.101602572222578073e-03 5.648608088775372571e-02 4.408370783420509365e-02 8.405090190426628416e-02 -1.165972215003687751e-01 -1.439913110226177517e-01 -1.682330220258814457e-01 -8.291431057061321441e-02 -1.710731893888778887e-01 -5.498987899132983664e-02 -4.850363564119305332e-02 4.621884487806494912e-02 -4.791163211875600764e-02 7.398074816934178954e-02 7.010688496994051111e-02 -1.801612912690500959e-02 1.128043925523244083e-02 -1.777610985298747337e-01 -1.559297667816877120e-01 -8.034821210676758307e-02 -1.466713998210583854e-02 2.051647347285035644e-02 -3.597966592936760466e-02 1.121785269661426145e-02 2.106019143093958157e-02 7.320911789006925852e-02 7.602030020126758492e-02 5.760596160067626981e-02 -1.585682278202911813e-02 -7.352694195923237253e-02 6.653724276543072913e-02 -1.103093880985993487e-02 -1.174717843615317447e-01 -9.955635502703255590e-02 -7.398732005648196719e-02 -2.642283911189926005e-01 -3.872490588552759266e-02 -1.900043621349769007e-01 -3.582741441023093443e-02 1.790356849539018885e-02 7.543626259088466457e-02 2.240055612158686482e-01 1.659981978872442365e-01 -2.559568468095701002e-02 -2.028327574533567990e-01 -1.784442640231159727e-01 -1.515744467847210675e-01 -1.805919538917367950e-01 -2.540783899479802654e-01 -8.006536045689104097e-02 -2.718902582759116782e-02 -2.362819692397324228e-02 -5.293244864307371927e-02 1.000361352218375049e-01 -3.345712017019430301e-02 9.007182214614266325e-02 -3.198910758856909203e-02 2.687964716052250805e-02 8.379243157383203799e-02 3.219613542679847229e-02 -1.770952650807873507e-02 2.602954350406230105e-02 -1.063136389100142326e-01 -5.107271115958286062e-02 -4.710622044837216998e-02 -2.123392793073012631e-03 -1.005053713756314526e-01 -6.049055188159806890e-02 1.569649189937042111e-01 3.279510031005026388e-02 1.486761862593164174e-01 -4.693395018328984369e-02 -2.210979890881906162e-01 -1.800997535543877870e-01 -3.594890815033914833e-01 -3.922825896412525659e-01 -3.411726160484543358e-01 -2.552454839718450441e-01 -1.932484865751585013e-01 -1.579788571378439310e-01 -5.515404550236237963e-02 8.038581152974211275e-02 4.961197918483356561e-02 5.082362119769325698e-02 2.272549701270523692e-02 -2.501034716663141921e-02 -2.833465896901750727e-02 -7.062604317909380869e-02 -7.055776745383367590e-03 -5.499884933000245835e-02 1.397014538361513944e-02 -6.611135486420921525e-02 -1.106153559441745149e-01 5.292575947608320341e-02 4.419850162130493226e-02 -7.203239793990971751e-02 1.385203909449553294e-01 1.920308572049422291e-01 -3.517818183012035461e-03 -1.126441213439174222e-01 -9.521269334094112358e-02 -3.261530391210495372e-01 -3.137977762026035178e-01 -4.084490469945495916e-01 -1.118839523825492788e-01 -2.529505298017794002e-01 -8.631906560799307293e-02 -6.345599281749293719e-02 -8.416892945321663433e-02 9.379421150241918498e-03 -4.603812102792253537e-03 8.218945087446707931e-02 -1.747745251003750624e-02 -4.068887233372114887e-02 -6.616091394856923880e-02 6.753262054831198069e-02 -1.176039539143187151e-01 -1.034116277016077778e-01 5.937666681407262337e-02 -1.302225924516625111e-01 -9.142094633036425277e-03 2.999422538232780072e-02 -3.748170187239967255e-02 1.342347009525688140e-01 5.808918689719105334e-04 1.017774381697384573e-02 -2.262042975904065417e-02 2.743444732451644566e-02 -2.746611753579171131e-02 -1.010653688895700314e-01 -2.498481277557953323e-02 -1.779078801011705069e-01 -1.859043337262421824e-01 -2.430080261143290760e-02 -8.916899975167764947e-02 -2.107740489398833225e-02 -5.295041104101948226e-02 -3.228294985695074216e-03 -7.026626957620615843e-02 5.350137278068192032e-02 -3.467149108819155001e-02 -1.725484015702910892e-02 5.974345150427357032e-02 -1.079494346619707668e-01 5.933849065659878297e-02 4.154860458548364360e-02 7.365480940839927437e-02 1.503328680494780689e-01 5.569049035713915380e-02 9.669319617000199374e-02 1.092619166028903493e-01 -3.868438185142888258e-02 2.134692274712157722e-02 4.185983929562803879e-02 -6.989511363495136409e-02 1.259171159315791433e-01 1.657085269512483527e-01 -7.966244320019563729e-02 1.264617985767746249e-02 -1.045307661260843485e-02 3.831584439534440386e-03 4.595913280179839133e-02 4.862986184336942977e-03 -1.134694414202240126e-01 7.246498886830468611e-02 5.907886272024986951e-02 -8.322667501619372687e-02 -1.074710847293749473e-02 -8.591485810201128503e-02 -2.673521497410798198e-02 1.096891112702809423e-02 -4.967395408906126464e-02 3.987469237185931742e-02 -3.594570973651247531e-02 1.873941932699731971e-01 1.215820671584745966e-01 2.042889160452946440e-01 -4.793343798197606531e-02 -7.183189853385864299e-02 -1.049084041512834131e-01 -7.320118477041631655e-02 -8.404766214544469316e-02 -4.125923470175948959e-02 1.124381937329203690e-01 9.473692035596089148e-03 2.046183376413458072e-02 2.218958362093648856e-02 -6.157242019184498705e-02 -1.077527992158628101e-01 -1.414150070645153745e-01 7.171777007547861481e-03 -2.913450081158115712e-02 -9.073314112727408343e-02 8.507637265045495112e-02 8.761732216543099971e-02 5.743759512148935431e-02 -5.877980395285518217e-02 8.551920154217204639e-02 -9.064766591101283688e-02 7.253333174628917579e-02 1.312443820185460290e-03 -2.017698503178783423e-02 6.830522573827159383e-02 1.304217170731382935e-01 1.120314053193123272e-01 -1.520500321151798950e-01 -7.838841811895808087e-02 -1.996912562263694346e-01 -8.809907231865056476e-02 -1.291376577070573080e-02 -1.764485540798868893e-02 -7.850637731682401366e-02 8.338870077014958609e-03 -1.407451073784051487e-01 1.216825743978304682e-02 1.423835635594636675e-02 -1.128293594238485992e-01 -1.081623816792618570e-01 -1.105794968567469089e-01 -1.202447199251257676e-01 -1.272452657234803275e-01 9.794562360043616162e-03 2.437919037480209411e-02 -6.957802420102392194e-02 -5.245786094012601375e-02 -8.735457448321071183e-02 3.733211494621271886e-02 5.675108991030356625e-02 -6.543133633232886548e-02 -7.464413381840061257e-02 8.781245548636260057e-02 -4.624484605270583887e-02 -5.572857823298454916e-02 4.868939120726024916e-02 -5.643028890031582395e-02 -1.665378271454450165e-01 -1.635457704433570603e-03 4.121216127291535414e-02 -9.744542045991615165e-02 4.835369249216493054e-02 3.117357325248243383e-02 -2.551115159390864376e-02 -4.732764658962047150e-02 1.624261081893042524e-01 9.223128140502032460e-03 -6.618907036377287556e-02 -4.303055296594915369e-02 4.208902864245439579e-02 -8.956914159013625032e-02 -9.246838115923231016e-02 -3.911769426015956203e-02 -8.236939013804152679e-03 -3.158334356408491750e-02 -6.690203055547616628e-02 5.623677332423970832e-03 -9.361040820696595044e-03 1.289127142711569800e-02 -2.613905372908593983e-02 -3.824331782065992780e-02 -5.469807174474011074e-02 -1.048562359202153682e-01 -1.384116048756476106e-02 2.367053655340907795e-02 3.327361607748754307e-02 2.797876384323486759e-02 -1.377485030496645446e-01 -2.966610361523785294e-02 -6.975892437027656282e-03 -7.495048165503107040e-02 -3.150884356319211266e-02 9.313322916709114441e-02 1.282512168865188873e-01 -1.080206600032286059e-02 -3.012313599168467415e-02 8.648953003244311266e-02 -6.525159760863849523e-02 -2.661836613387617845e-02 -2.501502609316693521e-02 -1.646319921782156068e-02 -6.460430128162775176e-02 9.723578772872348841e-02 2.809167094486325622e-02 -8.352331882078636860e-02 1.470326082258791023e-02 4.949485792893631997e-02 -2.645096880370647469e-02 -9.051802000037512119e-02 1.190398396508297180e-02 8.856382182086809662e-02 -8.410952502201221592e-02 -8.315392550731892651e-02 -7.835545179303869678e-02 7.985164427710281579e-03 1.918639585652136140e-03 -8.920451479406989181e-03 1.004203418901223194e-01 4.580402853326174389e-02 -4.090488544042829994e-02 5.100542783172701267e-02 -3.755570925519347708e-02 -7.843036044887699565e-02 6.969811345024918593e-03 9.385932685653444740e-02 1.024395723535784508e-01 7.554584318401902365e-02 -4.981695502243521645e-02 -6.033399852856016765e-02 8.462233199523649940e-02 3.854928704908805459e-03
-7.760749133968780633e-02 -9.309545082172057673e-02 -9.854327063095090489e-02 -9.988490681000834759e-02 8.233572018944002036e-02 1.729593051726666109e-03 -1.166409503730397867e-03 3.270645427279617046e-02 -1.220938346789129936e-04 -3.710171117564252385e-02 1.133259704876923846e-02 -3.038641875071970699e-02 7.139236378227814712e-03 -9.986746925426928656e-02 -6.926868821742805660e-02 9.597666754270033074e-02 -9.391388858482146995e-03 -9.214623591850230888e-02 4.461418060878671876e-03 6.957540215138430240e-02 -1.455620088179190863e-03 -4.237582464882454908e-02 9.628644332664124117e-03 -6.817473907794897869e-02 6.934698304924299950e-02 -2.052081409081005225e-02 -7.907633978934668073e-02 -4.486726762659137141e-02 5.384423130051929629e-02 -6.182967714540144044e-02 -8.594365394133994529e-02 -4.127177846024126379e-02 -9.959615390857111394e-02 1.293489010716548752e-02 5.635720245518358561e-04 -4.361541439634882000e-02 2.577102023245282647e-02 2.141955784742783850e-02 -8.029549940299819666e-02 -2.045128710376830500e-02 -5.712362569328507250e-02 -4.292811190669186538e-02 9.295256966284907996e-02 2.989643520993860368e-02 8.556034179598710765e-02 -2.665877762487067759e-02 -2.505929438320274663e-02 -2.657329662951281660e-02 -2.070085708065848989e-02 9.591121652529639718e-02 5.347984546441233999e-02 -3.889202630579611381e-02 -1.030480463128465030e-02 4.471613415482039722e-02 -6.837563740879384899e-02 -8.927923763390357981e-02 3.894272423055142318e-02 -5.828024053174984953e-02 2.971509948632924253e-02 3.358541316299350904e-02 -1.165285140310899983e-02 -5.814893692905227091e-02 -1.344345442190175537e-02 -3.005685235775380770e-02 1.575949229740086083e-02 -8.805100909648805318e-02 -1.521362176516275616e-03 1.129326135901605709e-02 -1.096383588653541824e-01 -6.162328228906889527e-02 -1.509712003325779789e-02 -8.250254854005550920e-02 7.434402111793049495e-02 -5.104954424397326745e-02 9.991906342391793094e-02 7.829871995483272951e-02 1.036909212975709593e-01 2.365065781395623082e-02 9.819744003676790511e-02 -7.528807654791701276e-02 3.431252083242327527e-02 6.583944206915204366e-04 -5.665316320648792342e-02 -3.494937885248508569e-02 3.361008384347477507e-02 3.848125481695768846e-02 -3.677248359840289832e-02 6.274978449186817582e-03 -9.554410884683812999e-02 2.297228197415571160e-02 5.037887273217331319e-02 7.542310265640991829e-02 8.073392828084836881e-02 -5.836408769045255823e-02 1.936575650419073563e-02 1.426888099062502586e-02 -2.259480944585914516e-02 -2.163026058199664370e-02 1.817965255549998035e-02 3.359723514580239406e-02 9.000371300555729676e-03 5.502081218917585781e-02 1.342345885957502150e-01 1.838839236794834742e-01 1.304698356246496993e-01 1.080471512302848824e-01 3.515812314987273868e-02 3.954952411089060656e-03 -7.539384088768659453e-02 2.931968431212906775e-02 -5.956345506752692975e-02 -8.529333860650110954e-02 8.255038207588075161e-02 3.935936576436133150e-02 2.249802965847820524e-02 9.096669715780027199e-03 -1.326769146918031946e-02 1.145853849117366291e-01 1.134402519878363880e-01 -2.593230650174483884e-02 1.182298691603338170e-01 -2.184441086925459699e-02 7.854056317327422210e-02 8.326800599082388385e-03 -5.929466167797861620e-02 9.608116970208210872e-02 1.209315560575937622e-02 1.041648729915493066e-01 2.099403169549062531e-01 7.966085484624453594e-02 8.384090232016357114e-02 1.126360079495409422e-01 1.865383145116404906e-01 1.309264411102267767e-01 5.598841307057907807e-02 1.181718681682126793e-01 -2.118278395289889190e-02 -4.313943870355852611e-02 -8.766690616442528172e-02 6.027429104588976488e-02 4.421975309760650674e-02 8.015107708422555821e-02 -7.209424459589189316e-02 7.437584918769983566e-02 -4.564281182922073909e-02 6.557901552988212868e-02 7.421179886110675084e-02 2.004278237163114110e-02 1.210564052621927039e-01 -3.039621219231299076e-02 9.233863333845675203e-02 -8.505596099042284086e-02 -4.011588926596002663e-02 -1.160195327476329502e-01 -9.824505408113656801e-02 4.066402228107862671e-02 -2.606256013084301201e-02 1.152987643766751648e-02 2.962165177714899678e-02 5.352019572000032976e-02 1.708251197425538215e-01 1.032620040868820893e-01 1.625917296856700944e-01 1.557018022297767534e-01 6.879987195013217982e-02 -2.806424304984351734e-02 -6.078319008357781911e-02 5.198708286069010642e-02 6.182882083227439485e-02 1.932274083881018942e-02 -8.505681539257582691e-02 1.790776528435136447e-02 9.987210426904111205e-02 1.294319436229281750e-01 7.638770705864122990e-02 9.766655334908684594e-02 6.345925632946466943e-02 -1.264136260336938371e-02 5.017988635657057508e-03 -3.589903708364897139e-02 2.012598270214250445e-02 7.546133856647685954e-03 8.029558026473836152e-02 -1.285798284298479699e-01 4.761512658649925261e-02 -6.518767104767239640e-02 -5.109081610815902758e-02 -1.763429914503810425e-01 -6.056607011856753042e-02 -4.042665000275692117e-02 -9.235776799587225305e-02 1.142378447817472692e-01 1.039202810606570798e-01 -2.337290050712927114e-02 7.626007370713183686e-02 -5.842701805705887569e-02 6.744897478542930458e-04 -2.117322142475263139e-02 1.605865031921338906e-02 4.144126858641861144e-02 -2.701956535295198941e-02 1.517787217891123641e-01 2.553660852392427086e-02 -6.247622325022384598e-02 -2.858500343242661307e-02 8.145060636588458136e-02 -9.217141274384473351e-03 -1.072912668834877931e-01 1.889967677791810907e-02 -2.224307841146621126e-02 -1.228357475143186314e-02 -4.484065800696720311e-02 -8.285315467574970449e-02 -1.498463498056742949e-01 -1.989250011212879699e-01 -1.011405211903096263e-01 6.504124141165272197e-03 -1.102514713730156498e-01 -5.446734530077845804e-02 -1.874142017538232147e-02 -6.133552796978163080e-02 2.080548060762831344e-02 3.150958904842487279e-02 2.069498705113295353e-02 4.209628110217279728e-02 -2.866256341837155469e-02 -8.420934413350277328e-03 4.586116240716957976e-02 8.373989029319202533e-04 8.765470856315965564e-02 6.059425025582253904e-02 7.044418612726420503e-02 -5.988350805215339641e-03 1.431235558753769094e-02 -7.225067965343219545e-02 -6.319645198604313674e-02 -2.885205409289250400e-01 -1.234215824992668520e-01 -1.891439805927995488e-01 -1.498594939170212748e-01 -2.358280097538038855e-01 -1.766563746180655481e-01 -1.016790818475895447e-01 -1.732299583228446294e-01 -1.834281103948484093e-01 -1.256963890968281761e-01 -9.571093491733304037e-02 -1.552219094162632651e-01 -7.981768251107375367e-02 -8.925604564852447978e-03 3.084872436489918476e-02 -4.989593165695906107e-02 5.247432976385368181e-03 -6.580834316412657176e-03 6.685620493189435576e-02 -2.416945208894194508e-02 5.077370399539316015e-03 -5.412300413998848841e-02 1.578916251997016240e-01 8.515116887184775996e-02 1.555123208554323178e-01 8.644560695428864239e-02 -6.113772839698339984e-02 -1.784757797136331814e-01 -3.624793848333826007e-01 -3.682532107119833031e-01 -3.641795651997896122e-01 -8.834929171387229108e-02 -2.060302767858030737e-01 -2.489504714657725382e-01 -1.819988165506867261e-01 -1.269004353617934622e-01 -1.323317511483540487e-01 1.049787012693306591e-02 -1.587157176365217026e-01 -1.994613244203350122e-01 -9.944039797640763512e-02 -8.148924102181875906e-02 2.266937980614019965e-02 -7.265013589367085023e-02 3.258394552140250061e-02 8.947036631314639332e-02 3.202975885134461131e-02 1.123172902619173075e-01 -1.546314675561294861e-03 -2.395760319979586481e-02 1.134001026416134872e-01 1.146751502129562394e-01 2.006524676055790046e-01 8.137816437451929688e-03 -5.650303816786578226e-02 -1.203337973272690792e-01 -3.534684919828666727e-01 -3.280041644728628469e-01 -2.602387761798595212e-01 -4.754508030579319283e-02 8.392092367903596084e-02 -6.204373125727303401e-02 -1.744174968532697934e-01 -1.855904347111412070e-02 -8.554859982955527464e-03 -5.979091809439644745e-02 -1.603276428708092644e-02 -2.011820787657182807e-01 -8.024401483310326932e-02 -1.997214860244988285e-03 -2.040438314691143604e-02 5.657369700752175670e-03 8.456766247303076564e-03 1.169094485083641173e-02 2.326832357421259809e-02 1.763215209188290916e-02 1.498101209429970604e-01 -1.277055177888489039e-02 7.153123931184136863e-02 -5.962464906441970747e-02 1.509698009456652834e-01 1.386294450568810455e-01 1.697805252724329528e-01 5.179019729513078402e-02 4.762479992196789330e-02 -4.169690757958740418e-02 1.407088713334108954e-01 2.252249234595224969e-01 3.150600451782957223e-01 2.420580882495937947e-01 1.086172558005457922e-01 -1.696889189780059412e-02 7.509504412846525201e-02 -1.607240183362405594e-01 -2.289757276813577935e-01 -2.155172839683791308e-01 -1.808782165290456212e-01 -1.469429284387308576e-01 4.624739534265105353e-03 7.271261761912070978e-03 -7.280476610198487186e-02 -4.083485394618238673e-02 -3.189002055658445717e-02 1.056592608407949316e-02 8.270912812565688055e-02 1.467897254070474888e-01 -1.798808019639863004e-02 5.374182269764887776e-02 1.798672463812471811e-01 2.446270493195338291e-01 3.392864321167713415e-01 2.788836961601293685e-01 3.094829603743164959e-01 2.746757834897598505e-01 2.242773942460429826e-01 4.365940046945577802e-01 4.146046941749957915e-01 2.150183029889465025e-01 3.204734373129207170e-01 8.158797680733330393e-02 -3.945680259762881364e-02 -1.137576381787351043e-01 -1.383942558846885662e-01 -1.003092815707436886e-01 -1.073730421895090631e-01 -2.985965394406414619e-02 -8.382703114579499737e-02 -5.448134718714412600e-02 7.305238902747077101e-03 -1.153328470555923732e-02 -9.206928731989302839e-02 -8.746312038898003405e-02 4.063261359862865157e-02 1.224742132131543260e-01 1.456465181440579348e-01 1.120302884839783075e-01 8.932922022202959347e-03 1.923876730445575889e-01 7.436666836984760776e-02 1.316779433822502787e-01 1.557535382358605225e-01 2.136897600270378783e-01 3.026743852445626937e-01 2.470007921401327078e-01 3.117162496525205384e-01 3.255828304062367562e-01 1.413169365099342378e-01 3.789367173689055929e-02 -5.817166782851265761e-02 5.171044531649237469e-02 -1.113473095287354081e-01 -1.596361680939761482e-02 -1.511954805421897863e-01 -1.395964695473686512e-01 1.114019761620905179e-02 -3.962908538385553903e-02 2.175646778436680917e-02 3.472342648510991225e-02 -4.974451567945544633e-02 6.582357587365766927e-02 1.125749628661828206e-01 4.248374131632415285e-02 -4.862460613329792208e-03 1.205024330191703866e-02 -1.622553023424070165e-02 3.159905575642946857e-02 -9.813112848224177232e-02 -1.549869998066979448e-01 -7.065244198974095224e-02 7.489602407980022747e-02 1.939127314353348563e-01 2.539907949293686018e-01 1.670570767058396633e-01 1.418802568571907452e-01 5.314452540051354396e-02 8.623645810992017213e-02 5.049709383335248408e-03 -3.229985641842048755e-02 -5.795366673753066938e-02 8.452340211428902017e-02 -7.216524948893465741e-02 5.086544021614586991e-02 -1.259262467809147967e-01 -9.431704077567687472e-02 -4.344960424728781107e-02 9.192024107395080357e-02 -4.634018773433128818e-02 4.450880878070626739e-02 -9.239107119141490299e-02 5.178840965210794456e-02 1.102470555750188069e-01 4.751369368124117032e-02 -2.016915016940505623e-02 5.350881039681015805e-02 -1.927854072311039335e-01 -5.758615849636643941e-02 -5.476556502966638262e-02 6.762398927944977822e-02 2.687034109168950358e-01 2.390363136810176869e-01 1.620686977962427500e-01 8.592433321080525377e-02 5.212828726297776688e-02 1.319412096058218964e-01 8.030755292245781926e-03 9.942409260084340838e-02 5.712030200577691147e-02 -7.238224277781020455e-02 -7.780520966573657715e-02 -7.282582075599861038e-02 -1.197296516793293630e-01 2.045869951526872732e-02 4.589637030918921647e-03 1.013958069738442325e-01 -6.395947011871200294e-02 -5.859433112117307108e-02 -8.725645119651131640e-03 -6.957635970287900928e-02 -1.000733832625504416e-01 -8.789520195162377203e-02 2.254785627516899676e-02 -2.271352673502755881e-01 -2.987321753336952823e-01 -1.985772818621474034e-01 -3.294238397546182806e-02 3.677211434982638472e-01 1.440363465985956271e-01 1.027710456472258338e-01 5.316763659254985369e-02 1.133523878114142680e-01 1.040765952124430987e-01 2.569582327004765188e-01 3.548912408498793719e-02 -3.012316889289147134e-02 -5.268734443465428186e-02 -3.410614494694892695e-02 3.677065664364650294e-02 -4.052179133008541878e-02 3.828956993686820874e-03 1.816191738527831584e-02 -6.309234367800556353e-02 -9.766581446791092191e-02 -4.599071221596939124e-02 2.257165907865268939e-02 -1.052421482942687489e-02 -8.875782999418904695e-02 -7.074044971579332430e-02 -1.122708604471854554e-01 -7.155407956896828181e-02 -3.469735799592132408e-01 -4.067275633459275785e-01 -2.430582145840775865e-01 -1.531172703715658577e-02 2.871838673840020895e-01 2.152772743700955005e-01 -2.028087657806017241e-02 6.772539177577964475e-02 1.536185712167768003e-01 2.819151795682097728e-01 1.213548849680541469e-01 5.296111262786192680e-02 -6.034962779864087856e-03 2.925660191703639140e-02 -1.410944208973770320e-02 -8.652340423276372317e-02 -1.777598773960445133e-01 -1.007552127105307560e-01 8.334068156802706961e-02 -5.418800228950387821e-03 -2.620466770105509685e-02 -2.156597802462040595e-02 1.250025986799115085e-01 6.838024710747167556e-03 8.486631752919392147e-02 -3.846948377319435886e-03 -1.175808606255676070e-01 -1.127612372839466304e-01 -1.662973418945388193e-01 -4.695211308450272236e-01 -3.122690564921714040e-01 3.512428419326006634e-02 3.187904195011566355e-02 4.791296742570892719e-02 8.738983736452614337e-02 3.815013796228565457e-02 2.196508675132104738e-01 1.391810523956766577e-01 1.367348573020384928e-01 1.701349062396327050e-01 2.611416373446794753e-02 -5.938475406551277369e-02 -8.065045774796807121e-02 -3.645050511899777107e-02 -1.696121891622895117e-01 -1.156243406523129076e-02 -6.718938558007972461e-02 9.491134840033704778e-02 -4.678056106505076861e-02 5.501844804218796597e-02 4.886918342976782036e-03 1.006812069787182962e-01 9.966285805136233800e-02 -1.126736077733149627e-01 -1.781301713550453303e-01 -2.245600243425946996e-01 -2.623134530712366574e-01 -1.923705732708073379e-01 -2.951364729384349864e-02 -1.179899764359394754e-02 9.231286049565855245e-02 1.000928833948731972e-01 5.958289801928152302e-02 1.052724828491657105e-01 1.441944877636770206e-01 1.843982949838144092e-01 1.421448841490173254e-01 1.155482030443960584e-01 2.270700538349684425e-02 3.157006858974714669e-02 -9.080962903746200854e-02 -7.871922439927409032e-02 -1.235142544788801200e-01 5.309550931928241901e-02 1.184860693464259013e-02 -8.860989356056846178e-02 3.955961360776418662e-02 1.845350457663832988e-02 1.223236191560240355e-01 -4.781264384841526355e-02 -4.863466881620813996e-03 7.743846412952160724e-03 -6.358412039600169763e-02 -1.474919834513871708e-01 -5.352160239267376302e-02 -1.314626272219138747e-01 -2.278413979435266537e-02 3.121960937227146946e-02 -2.820867903460848140e-03 2.202635812165375517e-01 6.017428328187083425e-02 1.344929207953900752e-01 6.044354216932697893e-02 2.530821712031992021e-01 1.248452462140927227e-01 2.302542094492833202e-01 4.537126197083116153e-02 -8.772393459874286425e-02 -1.670154155585811262e-01 -1.243947492243414471e-01 -2.983627828867315909e-02 6.456764622971505885e-02 7.415553055617185585e-02 -8.312829452895086069e-02 8.837813538400082769e-02 -2.196560051387521501e-02 2.987278344441113634e-02 -3.791533186599655575e-02 -6.097790442843761122e-02 4.510270537612954406e-02 2.555183402790379282e-02 -8.931124372444192161e-03 -1.215112449372648534e-01 -6.197170251601574753e-02 -6.348950256276815474e-02 1.441701706069933864e-02 9.092509047553790080e-02 1.005886841619652305e-01 1.878228074088887992e-02 1.132086006815440499e-01 2.030480271186212993e-01 1.540853801620201968e-01 2.024760731003736602e-01 2.221089095312140105e-01 5.041863730763475326e-02 1.929255607451149657e-03 -8.040150969369964928e-02 -1.474992120615293556e-01 1.982238881293380689e-02 -9.272544112529985949e-02 -9.069237595437570909e-02 2.797862207046098934e-02 6.618641896442727102e-02 -2.080448980437334811e-02 4.293904437876907773e-03 1.043154609302475444e-01 -6.173008116891593421e-03 -1.115643397535816955e-02 -7.301643613954979239e-02 -1.665002907992069181e-01 -7.116721903980512132e-02 -1.633938584423966778e-01 -1.579253823241049681e-01 -2.711944780775144559e-01 -1.050268009794491225e-01 -1.568049984760174279e-02 -4.918917499144775940e-03 9.627764164180656337e-02 1.824944491843470684e-01 6.739493655642966874e-02 2.369549762781585633e-01 1.952421982113851373e-01 6.833408183205731679e-02 5.351210954932720393e-02 -1.231279557047935680e-01 -1.571970077744930076e-03 -5.916860300643516507e-02 6.960809786834984414e-02 -2.154013730258694942e-02 6.613477453844782139e-02 7.664025620201594946e-02 -8.743741048887375411e-02 1.749001314250768491e-02 -2.233516545665474584e-02 1.336897023625683856e-01 2.589595871102099225e-02 -7.177492272716591570e-02 -4.456854244636885426e-02 -1.937332233118379543e-01 -1.490203991974230202e-01 -2.165214689420719707e-01 -2.597788377116623804e-01 -8.792488117168732742e-02 -3.693418833756331732e-02 6.534364147473738227e-02 1.603150596131837635e-01 9.961406717144911938e-02 1.164773596340156481e-01 2.918050695630203598e-02 5.048915690326331168e-02 1.091235388703314102e-01 -2.480350838473704619e-03 7.054335744855685930e-03 1.883105578268953056e-03 9.649714069638682182e-03 -7.834402705291161617e-02 -3.449292030093052686e-02 8.336750222988326131e-03 6.004378935471219036e-02 -6.077856795553863989e-02 -3.871546239283894797e-02 8.687981983063849944e-02 4.322406308139705583e-02 1.735581376948248933e-01 9.920354479118928537e-02 5.422451101163504664e-03 8.778700608721128062e-02 4.436695315705545956e-02 -5.537729661920583191e-02 -3.227185637769832555e-02 -5.468475403899475396e-02 -1.759660129826809138e-01 -1.647070927537732099e-01 -7.233717311440734932e-02 -5.730705861591477851e-02 4.450117006301504419e-02 9.593229019312439487e-02 6.924704438578030419e-02 -4.143219807030837365e-02 -4.960564702965794548e-02 3.634784236325203088e-02 -1.759861852336717242e-02 7.038242017444421017e-02 -4.410311907317356755e-02 -6.917885109684372702e-02 6.962295766985510115e-03 -5.283222779265606128e-02 9.098472238461172146e-02 2.526404788196512027e-02 -9.665548991852778229e-03 1.309296533218798353e-01 5.580627989209362844e-02 4.272223880324821366e-02 -3.423421848331371226e-02 1.295082599196393514e-01 -5.029702032996237297e-03 1.423716731361360233e-01 -1.016520695459663531e-01 -7.625159786138634155e-02 -6.717979230246804920e-03 -1.676370811436039832e-02 -1.434359441500958898e-01 -1.062389078958042715e-01 -4.549138756074974643e-03 6.409645787020848418e-02 -4.844551655791412559e-02 9.516578991426141720e-02 8.587616151705279588e-02 1.059423276057542586e-02 8.915967277593601914e-02 6.815957879529679908e-02 2.014447831161735383e-02 -8.736784953631832051e-02 6.244365594320153146e-02 6.373791661353964133e-02 -3.191528321423137138e-03 6.938057030670359560e-02 9.682135173624916227e-03 6.080766004058168334e-02 7.686380474546568309e-02 2.805454946179567616e-02 -7.370064897276716598e-02 -1.061203443802567065e-01 -1.283212026535097972e-01 -1.043040899021722423e-01 -9.683822082134843634e-02 5.290932676929594597e-02 -1.408257522500210579e-01 2.799559155255943940e-02 -1.051825012765982420e-01 3.386575430388680946e-02 6.709248418188944185e-02 1.240803787467740886e-02 -2.603842759266217222e-02 -3.871051600293914322e-03 -9.152301045397563672e-02 -3.943582442647631386e-02 9.884849778193262326e-02 3.458081295495189084e-02 9.462173199583887029e-02 -9.846430356016733221e-03 9.885021860876588851e-02 9.628043262385599377e-02 -4.032584567947901377e-02 1.370912920985471739e-02 -5.691931476259846218e-02 -5.951397308097599453e-02 9.354866782778953338e-02 -3.528164103829509179e-02 9.454628274186072101e-02 3.974999714229770706e-03 8.133842070588208351e-02 -8.428100395356795393e-02 -1.848252116490109865e-04 -2.727008787401285356e-02 -2.200996131864363728e-02 1.679378889976562358e-02 3.198204406364344582e-02 3.078685924327414711e-02 3.755530386012157634e-02 -4.904282546126215864e-02 -6.277938762693102692e-02 -7.433007475318696711e-02 1.716832724656086259e-02 4.325516543552132553e-02 4.616700825256375706e-02 -7.469071201554727812e-02 1.032077555295078664e-02 2.635489410804797705e-03
